-0.190026,-0.030350,0.135864,0.620944,0.323713,-0.507647,0.841760,0.100155,-0.162709,0.239509,0.378966,-0.521550,0.142364,-0.389776,-0.367157,0.042348
-0.446173,-0.660546,0.090847,0.481411,0.516430,-0.185615,-0.390270,0.174867,0.400344,-0.581336,0.081676,0.634019,-0.419015,-0.233419,0.402663,-0.312914
0.215725,-0.008590,-0.210772,-0.137937,0.191995,0.027002,-0.769533,0.392282,0.293076,-0.376045,-0.804258,0.455376,-0.104437,-0.183247,0.159805,0.228331
0.111063,0.375783,-0.202977,0.072952,-0.083091,0.181719,0.157796,-0.009410,0.086326,-0.118546,0.269651,0.040035,-0.080714,0.766819,0.086734,-0.697072
-0.412539,0.051632,0.154041,0.138422,0.280590,-0.370105,0.135806,0.370961,0.131071,-0.246929,-0.125978,0.548247,-0.441763,0.262224,-0.001415,0.546461
0.068488,0.791029,0.807640,0.474936,0.754415,-0.416344,-0.094956,0.549258,0.053822,-0.469482,-0.858780,0.601499,0.159741,0.376676,0.167729,-0.225177
-0.045192,0.139829,0.570893,-0.301146,0.015896,-0.548153,-0.287828,-0.487621,-0.345356,1.187906,-0.359989,-0.416263,-0.049673,-0.276105,-0.393600,0.588077
-0.361118,-0.292853,0.122749,0.356300,0.362282,-0.303218,-0.214453,0.133478,-0.061184,-0.118625,-0.472679,0.600318,0.428596,-0.246968,0.298175,-0.174942
-0.158603,-0.656157,0.754750,-0.000302,0.840286,-0.069352,-0.233156,0.133099,-0.336797,0.064811,0.211080,0.316747,0.799149,-0.250367,-0.233910,0.038152
0.010276,0.164988,-0.409121,-0.070966,-0.349576,0.071031,0.241626,-0.258781,0.067339,0.513710,-0.582125,-0.659721,-0.123202,0.029815,-0.417065,0.579581
-0.352896,0.218714,-0.214163,0.017666,-0.116775,0.114957,0.383147,-0.415641,0.111147,0.156952,0.495802,-0.472421,-0.017765,-0.700298,-0.466483,-0.742157
-0.292452,0.004260,0.118345,-0.024738,0.365166,-0.685754,0.346312,0.340360,-0.223184,0.035821,0.589197,0.245247,0.840223,0.149320,-0.354145,-0.230839
0.028585,0.214357,-0.310994,-0.110279,-0.132507,-0.206022,-0.103749,0.278936,0.182678,-0.424958,-0.893742,0.364560,0.300437,0.057826,0.166137,-0.180526
0.232653,-0.014783,0.013845,-0.143977,-0.007759,0.586236,-0.061425,-0.032430,-0.088126,0.145925,0.073924,0.467885,0.294965,-0.090520,0.001025,-0.493050
-0.148162,-0.219186,0.158431,0.018367,-0.227637,-0.298198,0.244801,-0.143750,0.116444,0.085465,-0.435384,0.126442,-0.146832,-0.082564,-0.200978,0.482508
-0.005821,-0.060482,0.606835,-0.253692,0.510976,-0.523468,-0.066117,0.050075,-0.666442,1.026488,0.132159,0.392479,0.713047,0.014795,0.036263,-0.328470
0.515612,0.009530,-0.172659,0.439607,0.090378,-0.266479,0.468485,0.346597,-0.218028,-0.093212,0.109662,-0.012286,0.331792,0.247178,-0.029671,0.364874
-0.586762,-1.251898,0.211464,0.020514,0.577635,-0.006847,-0.461356,-0.356400,-0.257714,-0.006142,0.190036,-0.162534,0.258475,-0.193047,-0.226329,-0.587149
0.080879,-0.342876,-0.198604,0.061575,0.296525,-0.053246,-0.545462,0.177940,0.058107,-0.088926,-0.763791,0.298922,0.039554,-0.118452,0.012869,0.099840
0.303920,-0.154512,0.124170,0.015248,0.343568,0.554694,-0.362423,0.005731,-0.217458,0.137723,0.134276,0.124756,0.126202,0.130650,-0.038201,-0.677394
-0.355669,-0.394663,0.032669,0.105132,0.246201,-0.307532,0.018159,0.128915,-0.292220,0.085202,-0.106993,0.513250,-0.109831,-0.173035,0.063862,0.873271
0.367414,0.099090,0.177118,0.315702,0.357543,-0.465115,-0.294368,0.149078,-0.315817,-0.022859,0.320282,-0.274950,-0.033270,0.278087,-0.102242,0.574330
-0.163569,0.154771,0.490031,-0.007473,0.409986,-0.291145,-0.346475,-0.229033,-0.276570,0.225524,-0.614614,0.040044,0.365176,-0.369974,0.161294,0.670808
-0.331671,-0.790452,-0.047617,0.558514,0.792847,-0.683192,-0.488751,-0.190941,-0.303679,0.037890,-0.215805,0.510370,0.766487,-0.272179,0.382548,0.333410
-0.026738,-0.055319,0.263938,-0.291526,0.283464,-0.274545,0.053374,-0.040010,-0.076305,0.219270,0.156223,-0.267620,0.139057,-0.193576,-0.624376,0.470634
-0.457017,-0.617757,-0.333048,-0.363878,0.409620,-0.167270,-0.201352,-0.319781,-0.827217,0.959830,-0.153595,-0.174086,0.524030,0.142944,-0.024513,0.187811
-0.452463,-0.194394,-0.405471,-0.192154,0.170924,-0.091422,-0.358601,0.124683,-0.235435,-0.267888,1.032133,-0.095208,0.428769,-0.364911,0.250025,0.273089
-0.464475,0.004779,0.061117,-0.671260,0.217852,-0.172951,-0.059233,0.064869,-0.385522,0.033326,0.343313,0.420229,0.464157,0.426306,-0.352402,-0.256762
-0.517880,-0.214217,0.224316,-0.241419,0.374385,-0.425949,-0.193820,0.359838,-0.421834,-0.192233,-0.956395,0.909456,0.462707,-0.151493,0.247375,-0.320582
0.566665,-0.171326,0.360541,-0.080030,0.296817,1.313394,-0.213599,0.206518,-0.226210,0.134210,-0.129193,0.518769,0.644651,-0.189292,-0.138310,-0.740812
-0.257425,-0.076534,0.051735,-0.265380,-0.137877,-0.221504,0.218634,-0.056271,0.129254,0.183998,-0.616107,-0.183819,-0.196147,0.048863,-0.207654,0.345889
0.293096,-0.022449,0.178784,0.115903,0.241983,0.014300,-0.595258,0.350687,0.446888,0.095219,0.114832,0.171352,-0.044415,0.087079,0.347781,-0.309399
0.378908,-0.052370,0.103387,-0.127381,-0.020135,-0.330556,-0.305186,0.031584,0.049279,-0.043827,0.234740,-0.140543,0.073007,-0.216878,-0.009785,-0.030435
0.044527,0.518305,-0.142036,0.062422,-0.324989,0.158246,0.206872,0.089480,0.170470,-0.070804,-0.178193,-0.252982,-0.107502,0.231234,0.053705,-0.135464
0.095832,-0.135553,0.263891,0.527519,0.117705,0.042388,0.118260,-0.005194,-0.084940,-0.009572,0.388045,0.070509,-0.155353,0.071945,-0.170585,-0.126616
-0.436082,-0.356003,0.068351,0.308877,0.250354,-0.328457,0.136243,0.071977,-0.106000,-0.050946,-0.160540,0.186258,0.080577,-0.163091,-0.049718,0.328132
-0.080065,-0.058778,0.070370,0.400084,0.569307,-0.193584,-0.091136,-0.130874,-0.188563,-0.010443,0.010441,0.368836,0.231867,0.171170,0.495372,0.205392
0.295267,-0.078946,0.009166,-0.159966,-0.071883,0.636487,-0.163391,-0.049154,0.105892,-0.043086,0.057203,0.083470,-0.045406,0.121909,0.070078,-0.251436
0.200059,0.649202,-0.044065,0.375116,-0.422837,0.035129,0.113559,-0.370309,-0.004300,0.037543,-0.355610,-0.600744,-0.024012,-0.452486,-0.140106,0.382336
0.122135,-0.031545,0.061084,0.033527,-0.021950,-0.054953,-0.129738,0.825918,0.035823,-0.381991,0.148666,0.178888,-0.114708,0.054035,0.118180,0.088104
0.835354,-0.073526,-0.211922,0.261384,-0.196775,0.059066,0.259198,0.156873,0.922450,-0.134608,-0.271742,-0.079974,0.020636,0.277746,0.120138,-0.158046
-0.083414,-0.000483,0.470058,-0.155733,-0.096407,-0.060511,0.254107,0.119737,-0.081385,0.602108,-0.052168,-0.245829,-0.098312,-0.013243,-0.169993,0.279373
-0.125123,-0.301176,-0.131445,0.153228,0.046053,-0.243716,0.324943,0.102379,0.002175,0.049509,0.318653,0.388761,0.129001,0.213372,0.009809,-0.442723
0.000183,0.102933,-0.109008,-0.300735,-0.112392,-0.039630,0.087156,-0.169997,-0.062682,-0.057273,-0.087066,0.108663,-0.023024,0.041235,-0.092319,0.070586
-0.300897,0.248235,0.024944,-0.195327,0.080042,-0.084544,-0.063024,0.190517,-0.144500,0.250391,-0.429283,0.415368,0.570771,0.049115,0.130191,-0.091589
0.150173,0.002803,-0.126182,0.082434,-0.068337,-0.178263,0.344156,-0.019302,0.066464,0.118960,0.083344,-0.192861,-0.184151,0.016959,0.127944,0.105355
-0.075932,0.003213,-0.367840,0.035966,-0.007583,0.049981,0.001293,0.149069,-0.052030,0.167175,0.285948,0.421562,-0.204593,0.012985,0.347792,-0.068195
0.315131,0.000945,0.156804,-0.285700,-0.185215,0.124874,-0.278020,-0.079907,-0.010487,0.037722,0.279247,-0.110433,-0.114991,0.037974,0.023158,-0.066529
-0.105067,-0.162423,0.325378,0.537696,0.321172,-0.487685,0.560246,-0.029919,-0.355560,0.340626,0.841234,0.012716,0.409668,-0.316160,0.066048,0.092875
0.098316,-0.435217,0.342691,-0.056348,-0.138909,0.113201,-0.033712,-0.024127,0.073617,0.061126,0.138938,-0.025758,-0.267449,-0.007145,-0.461941,-0.268391
-0.100706,-0.200537,-0.200183,-0.008209,0.263020,-0.442850,-0.619172,0.491441,0.108360,-0.468387,-0.264994,0.452496,0.015963,-0.005882,0.186921,0.509879
0.433806,0.086430,0.000196,0.057667,0.061224,0.592163,-0.184161,-0.052245,-0.114939,0.051988,0.041305,-0.081505,0.075494,0.033578,0.042545,-0.632733
-0.059916,-0.437002,0.246916,0.658951,0.469626,-0.187398,-0.270909,0.337629,-0.096275,-0.194028,0.045011,0.533467,-0.016190,-0.056632,0.124181,0.307125
0.308637,0.132563,0.396780,0.490081,0.146491,-0.139355,-0.253494,0.058637,-0.027066,0.157757,0.249051,-0.883552,-0.168195,-0.472867,-0.209669,0.439214
-0.482292,-0.059380,0.373497,0.323000,0.256232,-0.228885,-0.303783,-0.369085,-0.162189,0.375667,-0.674867,-0.290885,0.067709,-0.844641,-0.267322,-0.174516
0.161019,-0.176720,-0.389833,0.340995,0.181933,-0.130757,-0.555552,-0.114387,0.079080,-0.158139,-0.279838,0.165134,-0.025851,0.170140,0.547843,0.274565
0.853878,0.419456,0.008636,0.122359,-0.289220,0.162172,-0.031708,0.291157,0.538606,-0.472788,0.444046,0.252222,-0.299096,0.450230,0.190853,0.059340
0.100182,-0.174834,-0.221858,0.103736,0.305435,-0.047960,-0.453457,0.450884,0.231782,-0.169567,0.258005,0.116365,-0.205539,0.572055,0.714517,-0.207761
-0.339006,-0.090414,0.241756,0.166147,0.180169,-0.188291,-0.052737,-0.093538,-0.189833,0.181325,0.314946,-0.377269,0.498491,-1.127082,-0.407592,0.025056
-0.575797,-0.445023,0.294490,-0.249390,0.731771,-0.570294,-0.293525,0.254050,-0.683855,0.289504,0.699086,0.518359,0.696683,-0.094891,0.050820,-0.071608
0.297259,-0.029786,0.060623,0.172467,-0.011918,0.113675,-0.160250,0.050448,0.026153,-0.163993,0.454066,0.163541,0.288947,0.207678,-0.301880,-0.401005
0.118357,-0.092822,0.167028,0.330045,0.132194,0.977301,-0.237234,0.043015,-0.086170,0.140758,0.143823,0.325989,0.521304,0.079425,-0.175733,-1.137633
-0.246396,-0.188537,0.076846,0.007312,-0.225931,-0.393123,0.318972,-0.049590,0.090977,0.015159,-0.617314,0.096756,-0.097044,-0.100366,-0.200641,0.507326
0.076121,-0.056309,0.639648,-0.194156,0.207137,-0.345895,-0.082415,-0.267756,-0.571397,0.875564,0.550534,0.103225,0.469462,-0.220757,-0.039388,-0.272135
-0.474337,0.029695,-0.870641,0.342819,0.444474,-0.321020,0.083208,-0.008164,0.270635,0.134833,-0.438155,0.151730,-0.866114,-0.361487,0.783612,-0.138200
0.020101,0.748636,0.540263,-0.748365,-0.436946,0.000272,0.051171,0.480832,-0.649869,0.552880,0.503466,0.807044,0.816015,0.800560,-0.233019,-0.298253
0.172907,-0.483980,-0.409209,0.615119,-0.336752,1.076643,-0.454288,-0.687159,0.418309,-0.492486,0.316122,-0.127103,-0.027122,0.356190,-0.052469,0.495113
-0.192842,-0.841233,-0.832369,-0.020292,0.786401,0.653122,-0.235978,-0.474635,-0.357968,0.073409,0.242309,-0.038250,-0.765679,0.028014,1.319190,-0.471094
-0.204874,-0.152090,0.795594,0.248283,0.102122,-0.215159,-0.585773,-0.188306,0.449719,0.696745,-0.535501,0.150684,-0.199945,0.048968,0.502305,0.473980
0.157450,0.553089,-0.192966,-0.108862,-0.335246,-0.148496,-0.336929,-0.226937,-0.271276,-0.009336,0.137797,0.900210,0.243939,0.177980,-0.270375,0.146496
0.312034,1.050660,0.411007,1.052777,-0.262660,-0.394499,0.288710,-0.299358,-0.177343,0.633795,0.047983,0.131457,0.682502,-0.640118,0.306247,0.485428
-0.138045,0.367625,0.638180,0.050248,-0.516041,0.019913,0.676230,-0.281773,-0.187832,-0.612897,0.077536,0.085075,-0.140917,0.742401,-1.362774,0.539617
0.744139,-0.302962,-0.162115,-0.708552,-0.067683,0.565360,0.017933,-0.057238,0.422397,-0.069890,0.266201,0.130461,-0.048326,0.393791,-0.139539,0.131748
-0.122111,-0.198781,-0.504382,0.118977,0.271805,-0.479113,-0.246668,-0.404305,0.050676,0.244844,-0.439511,0.082078,0.003960,-0.678127,-0.423950,0.208994
0.357981,0.295957,-0.888324,0.098723,0.210790,0.289512,0.138302,0.033838,-0.239385,0.037088,-0.114225,-0.100513,-0.886019,-0.247806,0.764441,-0.315925
-0.232711,-0.942787,-0.577948,0.484125,0.014930,0.025770,0.029739,-0.184960,1.047567,0.215394,-0.486505,-0.177887,-1.127797,-0.104224,-0.823523,0.058624
-0.181460,-1.359260,-1.103648,0.263395,0.831390,0.629162,0.287240,-0.678853,-0.107149,0.272123,0.682015,-0.463986,-0.089216,0.119122,0.394492,-0.384127
-0.421263,-0.271457,-0.030400,-0.244577,0.529805,0.011550,-0.289968,-0.291429,-0.034464,-0.569147,-0.215482,0.104766,-0.189294,-0.336559,0.338030,0.209128
-0.264159,-0.078813,0.686647,0.364280,0.186273,0.163996,0.022419,0.179705,1.016667,0.855644,0.088154,-0.845552,-0.089791,0.433838,0.308728,0.621644
0.283716,-0.001666,0.408233,0.005757,-0.339586,0.798417,-0.116587,-0.220987,-0.948165,0.924629,0.196642,0.461746,-0.157611,0.817827,-0.276830,0.086392
0.292725,-0.217709,0.243133,0.174547,-0.205508,0.234073,0.169257,0.146838,0.225181,0.203503,0.025547,0.000876,0.062082,-0.017687,0.279548,0.302554
-0.413414,-0.220799,-0.701133,0.469770,-0.019315,-0.528776,-0.035825,-0.554147,0.234603,0.351768,-0.041849,-0.522353,-0.482355,-0.533156,0.835868,-0.052894
-0.598311,0.833766,-0.203584,0.537275,0.411704,-0.126494,-0.843081,-0.638120,0.055662,-0.751232,0.223521,-0.352166,0.215590,0.044830,0.550234,0.130861
0.324001,0.053598,0.057399,0.134447,-0.089171,0.509982,-0.455551,0.178120,-0.686655,-0.530061,-0.386936,0.341526,-0.676574,0.280884,0.070950,-0.147566
-0.117297,-0.046474,0.468347,0.370315,-0.065024,-0.036377,0.085412,-0.038008,-0.556689,0.710054,-0.033686,0.114303,0.176680,0.061713,0.330530,0.163883
-0.369953,-0.043507,-0.726458,0.223485,0.128265,-0.799373,0.163441,-0.092043,-0.241235,-0.132355,-0.267308,0.544251,-0.064512,-0.755022,0.385768,0.134343
0.108008,1.035513,-0.137229,0.416587,0.096777,0.123798,0.515445,0.743091,-0.128161,-0.188447,-0.052447,-0.012015,-0.270079,0.330712,-0.388762,0.235843
-0.495409,0.331478,0.565496,0.203644,-0.246419,-0.100425,-0.184649,0.131903,0.206820,-0.509731,0.239484,-0.029214,-0.186262,0.519556,-0.787532,0.384464
0.118617,-0.116859,-0.167003,-0.082424,-0.402466,0.348751,-0.052422,0.507144,0.714315,0.578376,-0.430700,-0.501718,-0.305050,-0.019698,0.568917,0.548970
0.373510,-0.228780,-0.402219,-0.063127,-0.068146,0.195182,-0.172375,-0.480393,-0.078071,-0.285838,0.472588,0.866318,0.322660,0.425158,-0.452302,-0.203003
0.209948,0.413070,-0.439281,-0.083685,0.127274,0.514434,0.289463,0.037676,-0.347894,-0.578482,-0.220702,-0.067402,-0.514180,-0.174908,0.719169,-0.157256
-0.491124,-0.714793,0.403343,-0.234168,-0.152813,-0.497031,-0.187617,0.435032,0.370762,-0.363054,-0.382213,0.292174,-0.296250,-0.035781,-0.063243,0.177345
0.085764,-0.021778,-0.372026,0.206146,-0.024649,-0.279878,-0.236318,0.443451,0.124219,-0.869297,-0.409123,-0.299576,0.206306,0.096566,0.200915,0.184092
-0.956034,-0.897770,0.232235,-0.087627,0.364515,0.267955,-0.246053,0.456703,0.330820,0.155609,-0.203003,-0.663182,-0.151798,-0.204787,-0.080591,-0.393812
-0.354236,0.063860,0.528493,0.200783,0.490022,-0.054814,-0.279110,0.005520,0.275518,0.518562,0.038836,-0.603711,-0.085277,0.149148,0.087552,-0.088648
-0.697647,-0.343115,0.000553,0.577708,-0.154697,0.166955,0.232373,-0.227292,-0.163611,0.370900,-0.083829,-0.035060,-0.032781,0.212711,0.300362,-0.267630
0.451682,0.436741,-0.084473,0.293336,0.305066,-0.037372,-0.293590,0.190331,-0.623374,-0.788904,-0.210938,-0.377975,-0.122226,-0.222569,0.013595,-0.333701
-0.174687,0.356100,0.309758,0.202775,0.008202,-0.222842,-0.377997,0.230249,0.335739,-0.336962,-0.255052,-0.301788,0.032711,-0.013958,0.246542,0.723374
-0.087797,0.161170,0.177522,-0.154727,0.112012,0.134829,0.292101,0.161669,0.213051,-0.217674,0.141823,0.250262,0.232587,0.171925,-0.013624,0.550232
-0.005235,0.202998,0.061590,0.917799,0.176130,-0.158728,-0.244657,-0.250936,-0.351431,0.108191,-0.229027,0.138301,-0.300906,-0.160591,0.219634,0.193767
-0.327509,0.138415,-0.133594,0.017542,0.136276,-0.075806,0.086454,0.067385,0.158325,-0.616923,-0.165404,-0.607581,-0.087359,0.172077,0.035201,-0.281850
0.177799,-0.469092,-0.136081,-0.166998,0.144018,0.362536,0.086905,0.216481,0.085023,-0.391117,0.291001,-0.448014,-0.096634,0.114603,0.148590,-0.319361
0.139398,-0.003138,-0.143520,0.041076,-0.502630,-0.178510,0.537051,0.126540,-0.050831,-0.028740,0.044433,-0.302175,-0.022570,-0.106308,-0.130001,-0.161589
0.275873,-0.223861,0.206935,-0.079770,-0.155704,0.102128,0.139660,0.239552,-0.049273,-0.308883,-0.065524,-0.245205,0.118429,-0.081952,-0.092009,0.109141
0.571935,-0.280377,-0.050973,0.272036,-0.021818,0.093411,0.051034,0.164815,0.684403,-0.204953,-0.199662,-0.226603,-0.273007,0.081297,-0.168078,0.072298
0.222183,0.101436,0.016374,-0.058235,0.011635,0.707569,-0.167152,0.109471,0.020645,0.262229,-0.161994,-0.483570,-0.147463,0.130833,-0.080037,0.372186
-0.188758,0.264930,-0.246666,-0.209355,-0.245595,-0.190771,0.398931,0.309944,0.080716,0.047395,0.543815,0.077625,0.256795,0.095401,0.016144,-0.502813
0.032102,0.867016,-0.052291,-0.359036,0.053994,0.191665,0.100186,-0.182952,-0.071034,0.405619,0.226330,0.192876,0.477745,-0.022729,0.054493,0.065399
0.107986,0.230830,0.002939,-0.163156,0.464596,0.387654,0.255702,0.315611,-0.260129,-0.029906,0.067731,0.091309,0.762542,0.159422,0.022159,0.269305
0.264123,0.190770,-0.138130,-0.301140,-0.320999,0.261733,0.022443,0.080149,0.334537,-0.183385,0.104061,0.325935,0.125692,0.252718,-0.203470,-0.114577
-0.382417,-0.257749,0.233382,-0.457043,-0.037784,-0.080468,-0.176559,-0.217570,-0.187591,-0.416501,0.160070,-0.274089,0.240572,0.058039,0.185997,-0.019082
0.120881,-0.044818,-0.333894,0.155516,-0.421524,0.403502,-0.025131,-0.215480,-0.188162,-0.492214,0.169697,0.027603,-0.084291,0.144656,-0.179622,0.687476
0.225817,0.024808,-0.209595,0.114603,0.046687,-0.163845,0.279026,-0.621482,0.172494,0.509667,-0.711153,-0.256528,-0.209693,-0.160020,0.008546,0.226969
-0.253805,-0.551409,-0.869314,0.297211,-0.386063,-0.269724,-0.645584,-0.093776,0.113582,0.118485,-0.240780,-0.779016,-0.151090,-0.347668,0.461744,0.098114
0.257437,-0.436998,-0.188267,0.448548,-0.060742,0.318349,-0.881920,-0.458807,0.259234,-0.834677,-0.209572,-0.860862,-0.384534,-0.235666,0.195019,-0.030686
0.032322,0.069029,0.250582,0.348268,-0.310367,0.519220,0.051084,0.449946,-0.074231,0.055601,0.017157,-0.113701,-0.006825,0.477819,-0.469032,0.200375
-0.074096,-0.045898,0.634379,0.290217,0.106542,-0.498905,-0.358945,-0.395126,0.503378,0.165522,-0.568478,-0.513063,-0.346167,-0.273791,0.378834,0.192719
-0.357008,-0.007883,-0.402763,0.449314,0.341191,-0.666986,0.134376,-0.512462,0.298593,0.663787,-0.480471,-0.386033,-0.056946,-0.408688,0.532462,-0.037551
-0.071887,0.143024,0.370647,0.327202,0.057955,0.296652,0.411742,0.020569,0.879204,0.633140,0.275799,-0.238032,-0.030886,0.152828,0.159661,0.237513
0.633856,-0.132625,-0.325336,-0.202248,0.053018,0.110132,0.428635,-0.046711,0.602628,0.456545,-0.249750,-1.004900,-1.472486,0.311671,-0.835944,0.033584
0.186759,-0.605343,0.045046,-0.451237,-0.575415,0.645285,0.089948,0.415059,0.301417,0.283351,-0.012752,-0.455241,-0.130805,0.200161,0.574382,0.395725
0.187397,-0.518635,-0.882170,0.143779,-0.260652,0.191784,0.724067,-0.370002,0.389287,-0.570527,0.082830,0.157277,-0.678678,0.225499,-0.790800,-0.478243
-0.392833,0.710174,0.253179,-0.140704,0.031098,-0.196458,-0.298589,-0.448587,-0.270331,0.603403,-0.130226,0.003390,0.074137,0.061104,0.547910,0.699116
-0.157282,-0.214866,-0.317954,0.562846,-0.475088,-0.932016,0.429790,-0.221945,0.872257,0.496300,-0.180939,-0.322036,-0.267041,-0.174061,-0.747864,0.934468
0.110140,-0.023633,-0.170894,0.262981,-0.204143,0.093559,-0.197907,-0.467613,0.004719,0.217556,-0.060699,-0.145966,0.000672,0.206706,0.405892,1.099258
-0.208827,-0.034769,-0.099041,-0.155268,-0.399871,-0.657706,-0.231893,0.396673,0.379461,0.106683,-0.322548,-0.506984,-0.233495,-0.212351,-0.090553,-0.493840
-0.612548,0.000137,-0.035257,-0.124805,0.084193,0.322860,0.097644,-0.094478,0.785769,0.084309,-0.040271,-0.986504,-0.284874,-0.263116,-0.236575,-0.250752
-0.364342,-0.337047,0.016658,0.323753,-0.349871,0.383331,-0.963018,-0.489260,-0.510760,0.582554,0.188807,0.255565,0.330986,-0.032867,0.081754,-0.118264
1.218491,0.084886,-0.007054,0.491279,0.217287,0.965319,0.967422,0.537392,0.329431,-0.230465,0.567527,0.877703,-0.340141,0.634490,0.137496,1.628743,0.219725,1.019657,0.315885,0.657016,0.637659,0.901040,0.616998,0.844996,0.946988,1.468302,0.495476,0.590479,0.775065,0.584004,-0.038163,-0.325109,-0.221929,-0.201790,0.260097,0.159676,0.186599,-0.111000,-0.160339,-0.012822,-0.400560,0.045894,0.050420,0.163592,-0.061445,0.015689,0.144150,0.077503,1.273974,0.591095,0.106108,0.784931,0.396104,0.707692,1.188890,0.034397,-0.908191,-0.381685,0.935982,1.455253,-0.033472,0.645088,0.133406,1.514570
0.190093,-0.594968,0.633631,0.086919,0.522411,-0.765112,0.129995,-0.380631,-0.207392,0.876046,-0.009841,0.495238,-0.389195,0.245839,-0.250744,0.392320,0.479648,1.391211,0.964925,0.466511,0.314111,0.905974,0.142019,-0.227033,0.545714,0.320273,0.176865,-0.133601,1.171269,0.431554,0.256630,1.504196,-0.553894,-0.223362,-0.059645,0.113116,-0.236030,-0.076551,-0.277604,-0.386144,-0.126339,-0.061778,-0.054080,0.222645,-0.147942,0.210450,0.220478,0.101681,0.564907,0.729287,0.408288,0.036913,0.421356,0.193569,0.271312,-0.255056,0.475995,0.816503,0.072242,0.475898,0.113502,0.609593,-0.175920,1.209585
-0.235020,-0.181397,-0.043292,-0.018301,-0.050809,-0.117553,-0.186438,0.266088,-0.035410,-0.201899,-0.117762,-0.184832,-0.065208,0.003695,-0.055733,-0.032561
0.354576
-0.187541,-0.553676
-0.326617,0.573771
-0.517429,0.375971
1.041878,-0.322045
-0.878878,0.615809
-0.160883,0.029868
0.165796,-1.279329
-0.510558,0.282180
-0.147213,-0.017393
-0.081109,-0.532859
0.368210,-1.452859
-0.313509,0.050276
-0.062463,-0.034893
0.428830,-0.380752
-1.037547,0.218885
0.762853,-0.692179
-0.814885,0.215302
0.020154,-0.055988
-0.223922,0.509229
1.230539,0.104139
-0.646527,0.450477
-0.033589,-0.212693
-0.451018,-0.790341
-0.650460,0.354789
-0.149746,-0.408859
0.119583,-0.518153
-0.149377,-0.744119
-0.024688,0.104763
-0.176271,0.216694
0.665633,-0.250486
-0.679965,-0.089398
0.732886,0.076058
0.819037,0.043938
0.087533,-0.620166
0.498381,-0.193365
-0.700072,-0.077429
0.172713,0.219504
0.691973,0.201862
-0.511681,-0.640504
-0.131507,0.453658
0.180689,0.286451
0.119586,-0.397386
0.608404,0.483303
0.009548,0.958564
-0.035841,-0.141934
0.506624,0.555679
-0.211457,0.836125
-0.782128,-0.160102
-0.210898,-0.127146
0.584223,0.178095
-1.047668,0.090876
1.256685,-0.186123
-0.346808,0.520793
0.262445,-0.035933
-0.102965,-1.058839
-0.359303,0.451060
-0.342825,0.106901
0.012236,0.209256
0.129143,-1.252228
-0.381721,0.006875
0.540927,-0.455682
0.358722,-0.504917
-1.154657,0.223528
0.734267,-0.976957
0.275524,0.276743,0.329492,-0.713690,-0.157890,0.154214,-0.250577,-0.082161,-0.039783,0.201293,-0.424487,-0.066912,-0.075591,-0.164118,-0.680906,-0.423625
-0.161839,0.519069,-0.108752,0.238449,-0.314614,0.182571,0.007700,0.688509,0.450523,-0.932865,0.071123,0.322240,-0.317546,0.551089,0.232344,0.008543
-1.379771,0.009920,-0.896356,0.153253,0.007013,0.422989,0.299462,-0.211730,0.044538,-0.101318,-0.642471,-0.473868,-0.662777,0.982207,0.226105,0.410918
-0.159389,0.000023,-0.084813,0.130087,0.505568,0.230798,0.137491,-0.155145,-0.180969,0.161997,-0.880418,0.066379,0.020481,0.145220,0.493738,-0.082944
-0.313658,0.087308,0.137808,-0.156552,0.007633,0.301716,0.162102,-0.369227,-0.043967,0.892984,0.185296,-0.447975,-0.006645,0.351160,-0.290509,-0.921720
0.093313,0.178599,-0.434037,-0.074053,-0.460211,-0.295308,0.623620,0.161496,0.453975,-0.071447,-0.667081,-0.398903,-0.078975,0.861634,-0.372289,-0.640922
0.178204,-0.444406,0.247809,-0.576943,0.437550,0.306430,-0.474718,0.469991,-0.155874,0.440677,0.558735,-0.266944,0.101323,0.009781,0.213255,-0.845495
-0.373222,0.392277,-0.818691,1.321790,-1.119643,-0.543592,1.235312,-0.075244,0.228075,-0.358128,-1.395805,0.230983,-0.015431,-0.557850,-0.358529,0.794703
0.408108,0.198027,0.129717,0.151902,-0.635488,0.118255,-0.221541,0.383180,0.037624,-0.006565,1.094924,-0.319090,0.248828,0.106565,0.091632,0.240552
-0.337406,0.603029,-0.532929,0.154114,0.080126,-0.138284,0.333451,0.143890,-0.044268,0.592983,1.283664,-0.044195,-0.104250,0.154320,0.742867,-1.249111
-0.282608,0.246994,-0.267601,-0.257867,-0.058950,0.288040,0.255091,0.036020,0.067160,-0.262184,-0.578362,0.108640,0.033174,-0.866225,-0.685436,-0.102763
-0.046711,0.601653,-0.118158,0.876086,0.668125,0.009202,0.344345,-0.159173,-0.848496,0.181290,1.092660,0.369340,-0.182016,-1.488368,0.094687,0.199127
-0.114545,0.246925,-0.063086,0.101333,0.086228,0.291787,-0.400386,0.388543,0.094693,-0.322495,-0.499409,0.336344,0.149094,-0.124212,0.228133,-0.496508
0.193436,0.116075,-0.150882,0.118709,-0.057130,0.054762,0.699892,0.471264,-0.067585,-0.154174,-0.187505,-0.211232,-0.419243,-0.402309,0.021175,0.267624
-0.495518,0.182146,-0.433533,-0.123812,0.035504,-0.139083,-0.253282,0.106896,0.247012,0.446502,-0.270156,-0.433843,-0.442078,-0.162381,0.332654,-0.127825
-0.126567,0.333114,-0.260401,-0.750840,-0.315761,-0.208709,-0.122170,-0.170497,-0.024865,0.215247,0.110286,-0.523411,-0.577122,0.530013,0.155757,0.984239
-0.256619,-0.381772,-0.231329,-0.438263,0.723079,-0.251235,-0.850482,0.417507,-0.215452,0.066631,1.099033,0.186819,-0.108721,0.233787,0.311589,-0.331913
-0.194373,-0.045704,0.121335,-0.425538,-0.014794,0.355721,0.115559,-0.279093,-0.680904,0.560633,-1.126046,-0.126219,0.295346,-0.297698,-0.235037,-0.821682
-0.413450,-0.195680,0.233286,0.345437,0.516361,-0.608842,-0.375804,0.116087,-0.456418,-0.080785,-0.677355,0.366386,0.108084,-0.270319,0.335290,0.431323
-0.581319,-0.410361,0.189467,0.800638,-0.336673,-0.286439,0.440391,-0.386766,-0.048693,0.026710,-0.966976,0.049784,-0.350121,-0.596697,-0.796604,-0.291773
-0.289393,0.092119,-0.044805,-0.151509,0.137610,-0.094201,-0.100750,0.082593,-0.082291,0.067927,0.156778,-0.195495,-0.020585,0.331003,0.038766,0.065327
0.078396,-0.726625,0.265358,-0.359913,0.172315,0.112910,-0.252136,-0.082269,-0.369576,0.360950,-0.086437,0.443752,0.908964,-0.318274,0.106256,-0.947190
-0.276934,0.231739,-0.373432,-0.449458,-0.184503,0.138795,0.193553,0.246240,-0.027294,0.369977,-1.000625,-0.042152,0.096219,-0.318035,-0.296004,-0.113630
0.023995,0.043600,-0.752879,1.102821,-0.558450,-0.304693,0.691179,-0.077754,0.076041,-0.476062,-0.258183,0.248109,0.005457,0.434709,0.084611,0.230229
-0.073829,-0.194425,0.466408,-0.309500,-1.075951,0.372700,0.033234,-0.104268,-0.107966,0.176236,0.193463,-0.572542,-0.065453,-0.050577,-0.942965,0.215782
0.078863,-0.049474,-0.236029,0.379615,0.194629,0.172708,0.239521,0.409848,0.192507,-0.314894,0.823079,0.674733,0.024920,-0.485658,0.681079,-1.046831
-0.409657,0.160604,0.163013,0.354686,-0.050703,-0.470200,0.403936,0.162657,0.093376,-0.367978,-0.447263,0.016011,-0.049804,-0.305135,-0.801769,0.311215
0.256434,0.205235,0.158711,0.145609,0.262907,0.337132,0.555764,0.010925,-0.162288,0.057568,0.936322,0.052859,-0.623730,-0.661919,-0.082759,0.242850
-1.543131,-0.754692,0.244532,0.561777,0.238734,-0.563617,0.316153,0.140006,-0.527989,0.088574,0.360829,-0.019838,0.561742,-0.620448,-0.903632,0.157204
-0.401678,-0.466152,0.833275,0.338697,0.813212,0.001466,-0.177316,0.253218,-0.151800,-0.146478,0.396651,0.179669,-0.206142,0.901267,0.165299,0.065850
-0.111619,-0.081343,0.272143,0.426028,0.230378,-0.311704,-0.500302,0.321841,-0.020480,0.228828,-0.621154,-0.319968,-0.477639,-0.161481,0.078256,-0.160332
-0.678065,-0.591690,0.297974,0.606453,0.800952,0.400600,-0.037382,0.106435,-0.889733,0.222561,0.603550,0.648808,0.037711,0.063851,0.587807,-0.817362
-0.382232,0.337412,-0.398592,0.829409,-0.768499,-0.355621,1.100329,0.105573,0.326757,-0.340188,-0.457713,0.073028,-0.081037,-0.245428,-0.445884,0.073281
-0.197719,-0.212913,0.094397,0.186262,0.046841,-0.256541,-0.112035,0.099694,0.167252,0.030764,-0.143407,-0.213475,0.026287,0.170380,-0.052889,0.111492
0.106225,-0.181769,0.205052,0.574997,0.153908,-0.313144,-0.370554,-0.132280,0.189158,-0.087796,0.263947,-0.445212,0.076174,0.544463,-0.485154,-0.343247
0.007720,-0.496334,1.015012,0.673128,0.584957,0.025909,-0.237633,-0.063021,-0.123914,0.226184,0.219522,0.211598,-0.147228,-0.037796,-0.043895,0.055505
-0.026670,-0.178999,0.137859,0.167300,0.135942,0.195695,-0.358412,0.109145,-0.115400,-0.298592,-0.073658,0.878863,0.310707,-0.583496,0.433544,0.349916
-0.358250,0.314049,0.159828,0.169716,0.056310,-0.048019,0.446690,0.080226,-0.002394,-0.198851,-0.258711,-0.200490,-0.213495,0.273267,-0.004507,0.124891
0.047839,0.068893,0.038091,-0.404360,-0.013626,-0.122753,-0.774219,-0.227238,0.066366,0.086909,0.951563,0.041950,-0.027541,-0.166182,0.073223,0.037564
-0.966634,-0.142573,-0.355974,1.391993,-0.014063,-0.507078,0.928665,0.094628,0.101180,-0.100628,-0.269319,-0.095866,0.161542,-0.759472,-0.399038,1.605347
-0.014624,-0.091292,0.058120,0.015814,0.351818,0.170980,-0.208268,-0.085165,-0.002985,0.272512,0.674868,-0.438813,-0.044027,0.096601,-0.116253,-0.009390
0.922446,0.558623,-0.052998,-0.224980,-0.370350,0.548569,-0.477061,-0.137191,0.297308,-0.163407,-0.038910,-0.056064,-0.470105,0.268915,0.315933,-0.754889
-0.020637,0.185785,-0.256718,-0.528123,-0.135512,0.148116,-0.603360,0.331612,0.066935,-0.294688,-0.379530,-0.132567,-0.193635,-0.407491,0.099634,0.762720
0.605380,0.223305,-0.060756,0.149048,0.025125,0.278300,0.018755,0.104614,0.067358,0.155661,0.537979,-0.553775,-0.088388,-0.082219,-0.375480,-1.022871
-0.090984,0.045133,-0.435671,0.039961,-0.072498,-0.131452,0.023390,0.170194,0.072902,-0.109222,-0.161434,0.032730,-0.044900,-0.151289,0.320502,0.202254
0.064180,0.307838,-0.131623,0.091024,-0.189037,-0.217732,-0.034464,0.178320,-0.096213,0.052881,0.130077,-0.497764,-0.236516,0.182819,0.135784,0.635548
0.053419,-0.113157,-0.158762,-0.270595,-0.170704,0.000154,-0.148050,-0.090597,-0.179860,0.086996,-0.550911,0.491386,0.057409,-0.454557,0.301916,0.100960
-0.278820,0.096396,-0.288554,0.676730,-0.051710,-0.383569,0.599496,-0.062313,-0.078147,-0.014172,-0.607199,-0.123701,-0.115265,-0.254646,-0.109828,0.187464
-0.085034,0.146059,-0.058505,-0.243430,0.003031,-0.304443,0.273889,-0.053123,-0.077652,0.149418,-0.301251,0.237759,0.233187,0.130436,0.220372,-0.051914
0.322106,0.080714,0.006385,-0.369761,-0.251574,0.137203,0.376431,-0.073262,-0.486507,0.190944,-0.315770,0.388590,0.404610,0.429727,-0.484865,-0.179781
-0.908527,0.048100,0.368207,0.193941,0.139604,0.013363,0.754398,0.388101,-0.178487,-0.305920,-0.503081,0.984480,-0.053591,-0.194200,0.454252,0.488423
-0.793494,-0.033675,-0.574136,-0.174114,-0.279215,-0.147892,1.042481,0.008586,-0.082365,-0.090646,-0.404647,0.049521,-0.648747,0.063710,-0.234579,0.424634
0.080981,-0.159768,0.946622,0.149174,0.048798,0.088139,0.373941,0.250285,-0.208882,0.272616,0.488976,-0.098660,0.147458,0.277559,-0.081736,-0.197355
-0.428676,-0.481538,0.385844,-0.120102,-0.057804,0.312895,0.194740,-0.241026,0.239819,0.222244,0.430448,1.570810,-0.611795,0.536151,0.804171,-0.754494
-0.341478,-0.202519,-0.606692,-0.784584,0.255350,-0.285289,-0.220271,0.279967,-0.008347,0.534781,0.679967,-0.232807,0.537370,0.218066,0.502405,-0.302593
-0.111843,0.149101,-0.277176,0.912947,0.072691,0.052878,0.681131,-0.000196,0.202775,-0.425906,-0.830638,-0.395099,0.142632,-0.584911,-0.470518,-0.474028
0.273183,0.434399,0.573314,-0.396943,0.261944,0.056517,-0.219506,0.084775,-0.270026,0.363574,0.813326,-1.091803,-0.027117,-0.129318,-0.099239,-0.299750
0.393439,0.418986,0.062673,-0.758328,-0.040402,-0.110387,-0.169124,-0.079075,0.190754,-0.103634,0.650087,-0.641910,-0.119528,0.188229,0.422308,0.763323
-0.517388,0.477441,0.307175,-0.277588,0.091923,-0.200484,0.709597,0.275534,-0.155122,0.052070,-0.268211,0.019709,0.061383,-0.276256,-0.195578,0.653957
-0.157446,0.372099,0.463821,-0.823991,0.746495,-0.208689,-0.008788,0.459982,-0.639213,0.007383,1.286451,0.018813,-0.756818,0.445347,0.705014,0.400928
-0.977065,0.085993,-0.287210,0.152729,0.109991,-0.090927,-0.088924,-0.033121,0.095252,0.116707,-0.253421,-0.529276,0.126214,-0.337385,-0.220882,0.676250
0.075950,-0.017842,0.209395,-0.470906,0.060290,0.136372,0.198768,0.111743,-0.463367,0.195022,0.105233,0.389707,0.120630,-0.115652,-0.109074,-0.211492
0.363863,0.215150,0.929838,0.353352,-0.111702,-0.094583,0.338534,0.406931,0.065404,0.152162,0.985950,0.748462,-0.526295,0.021241,0.507310,0.126301
-0.437062,0.027957,0.592993,0.752345,0.430014,0.194317,0.229410,0.322825,-0.523010,-0.306918,0.089239,0.574350,0.439470,-0.487265,0.266700,-0.829920
