-0.660395,-0.620864,0.449554,-0.218432,-0.165849,0.086928,0.341135,0.479485,0.336205,0.042017,0.479503,0.165132,0.124530,-0.473789,-0.725100,-0.478737
0.101878,-0.406408,-0.065872,-0.295397,0.370703,0.357552,-0.110281,-0.070572,0.542772,0.525323,-0.283482,-0.450405,0.377264,0.607505,2.514256,-0.684562
-0.353206,0.777333,-0.436789,-0.151380,0.095727,0.055622,-0.024490,0.397268,-0.091862,0.610979,0.346905,0.513550,0.280193,0.159233,0.035698,-0.077599
0.044343,-0.919932,0.290681,0.425941,-0.268897,-0.210820,0.362829,-0.395575,1.045171,0.473085,-0.519433,0.361927,-0.806483,0.564970,-0.380191,0.988396
0.172606,-0.038970,0.580896,-0.467386,-0.760249,0.384569,-0.226815,-1.179985,-0.339452,-0.111551,-0.137403,-1.201824,-0.405100,0.272682,0.872286,-0.865782
0.360983,-0.584695,-0.770875,0.642117,0.544160,0.123533,-0.149127,0.044010,0.095569,-0.142205,0.191126,0.244641,-0.293428,-0.579419,-0.478789,0.475506
-0.621603,-0.960339,0.146688,-0.394436,0.601260,0.697629,-1.270530,-0.225317,-2.023124,-0.123640,0.718148,-1.370957,0.315097,0.677959,0.333076,-0.560698
-0.049708,-0.270826,0.041832,-0.099460,0.289242,-0.170173,0.129327,0.922197,0.030985,0.436897,0.344424,0.566357,-0.527668,-0.124638,0.127556,-0.070176
-0.023820,-0.015265,-0.021645,0.008562,-0.006064,-0.021731,0.010375,0.023692,-0.009409,-0.021702,0.013322,0.021129,-0.019051,-0.028702,-0.028084,0.021490
-1.390316,-1.516737,-1.125232,0.662668,0.943805,-0.302554,0.097076,-0.201222,-0.097783,0.311497,-0.881223,0.189939,-0.305883,1.107464,0.531823,-0.030991
-0.308099,1.699498,0.337087,-1.054997,1.529933,0.624925,-0.830775,-0.135644,-0.197521,0.414784,-0.463268,-0.846318,0.198455,-0.485332,0.201606,-0.843337
-0.122037,0.254195,0.032669,-0.075977,-0.386743,0.408807,0.093189,-0.054211,-0.165854,0.509391,-0.048252,-0.025425,0.220032,0.200492,-0.060846,0.438259
-0.010197,-0.045338,-0.031594,0.030515,0.003891,-0.041720,0.008172,0.029284,-0.020054,-0.025896,0.031408,0.036413,-0.016485,-0.052783,-0.047790,0.061145
0.322777,0.093928,0.565572,-0.402712,-0.406291,-0.104803,0.257701,0.390854,0.473085,-0.221711,-0.134439,0.331037,-0.819972,0.728374,0.782554,0.332217
0.342817,-0.601806,0.424892,-0.199859,0.016018,-0.402489,-0.420341,-0.129625,0.796585,-0.168303,0.677230,0.205753,-0.359860,-0.315410,-1.263307,0.901832
0.058913,-0.942398,-0.390740,0.592204,0.125961,0.973913,-0.039043,0.262091,0.881488,-1.035576,0.564189,0.623102,0.401456,-0.576810,0.325628,-0.298380
-0.933309,-0.622428,0.272799,-0.139861,-0.196532,-0.037544,0.572062,0.550275,0.285057,0.060451,0.531196,0.476775,-0.174440,-0.614016,-0.977184,-0.306474
-0.441950,-0.271980,0.321223,-0.025185,0.154998,-0.369485,1.052234,-0.422003,0.750260,0.523083,-0.244975,-0.077866,-0.427306,-0.256825,0.043570,-0.109039
-0.506344,0.403817,-0.511855,0.208315,0.013976,-0.004750,0.002517,0.590744,-0.233881,0.673868,0.072147,0.562197,0.175087,0.127895,0.215312,0.027369
-0.096688,-0.650944,0.011287,-0.066161,-0.046392,0.040699,-0.293295,-0.486842,0.360437,-0.888148,-0.872828,-0.386522,-0.382326,0.296896,0.048505,0.170695
0.319524,-0.046066,0.373954,0.177609,-0.264408,0.200479,-0.625925,-0.598433,0.283249,-0.231685,-0.283471,-0.963794,-0.097596,-0.153483,0.071540,-0.400706
-0.582158,0.637310,-0.497458,0.649284,0.410021,-0.962441,0.269803,0.782851,-0.692191,0.292517,0.907993,0.703235,1.032679,0.204510,-1.055366,0.121104
0.272894,-0.553469,0.047287,0.474569,-1.643451,-0.760322,-0.031705,0.005172,-0.113472,-0.146452,-0.093565,0.422083,-0.237914,-0.314713,-0.122392,0.471888
0.008714,-0.070353,-0.044831,0.064650,-0.017549,-0.020655,-0.015612,0.036481,-0.043460,0.049161,0.020308,0.038547,0.063171,0.006465,0.012556,0.061811
0.057228,-0.729915,-0.064310,-0.302673,0.888226,-0.173777,-0.808237,0.395669,0.169954,-0.344388,-0.058647,0.102048,-0.158159,-0.181572,-0.364306,-0.161163
-0.706496,0.284054,-0.968734,0.549153,-0.133712,-0.937454,-0.140360,-0.099947,-0.757341,-0.170129,0.487909,0.485094,0.388070,0.028282,-0.517253,0.378714
-0.376657,-0.800516,0.384737,-0.039411,0.052152,0.036252,0.078108,-1.041346,-0.093405,0.022423,1.106569,-0.333069,0.092303,-0.364035,-0.596143,-0.547544
-0.138293,0.201315,-0.005859,-0.049371,-0.355722,0.297861,0.070384,-0.061047,-0.171331,0.363701,-0.015602,-0.038508,0.208436,0.162016,-0.049326,0.281031
-0.307191,-0.319247,0.045272,0.638044,0.260424,-0.292029,0.041741,0.242937,-0.624509,0.131458,-0.146314,0.154158,0.614677,-0.053090,-0.742981,0.257729
0.140221,0.554430,0.049355,0.950737,-0.054916,-0.134661,-0.089208,-0.068738,-0.054539,-0.046618,-0.358595,0.157627,0.166623,0.716720,-0.019004,0.833406
0.065818,-1.063952,0.032069,-0.026216,0.006198,-0.416185,-0.497903,0.030038,0.627411,-0.246483,1.741944,0.285045,-0.304490,-0.283289,-1.147068,0.997666
0.000952,-0.016790,-0.016835,0.036268,0.015941,0.008307,0.011217,0.013093,-0.018976,0.005525,0.025438,0.026946,0.006120,-0.011926,0.010134,0.026755
0.554977,0.599419,0.598752,-0.349350,-0.018148,0.208354,-0.049150,-0.120603,0.475644,-0.023092,-0.489423,-0.063428,0.279755,-0.309704,0.418929,-0.095798
-0.000081,0.002992,0.001184,-0.003873,-0.004411,0.005448,-0.001757,0.000798,-0.004343,0.005341,-0.000620,-0.002497,0.007745,0.004704,-0.000788,0.004506
0.446843,0.134673,0.669757,-0.138916,-0.736186,-0.127785,0.682272,0.258103,0.370899,-0.105664,0.090255,0.221700,0.434841,0.292958,-1.011660,0.024392
-0.035426,0.152917,0.085143,0.164088,-0.009223,-0.141415,-0.159683,-0.844113,0.084353,-0.531414,-0.851195,0.108925,-0.046296,-0.061549,-1.577016,1.052662
-0.564256,0.270607,0.135426,-0.779400,-0.170769,0.711997,-0.088109,0.280217,0.519234,-0.052753,-0.705314,-0.069155,0.657099,0.443050,1.364780,-0.571017
0.603865,-0.246976,0.096032,-0.578279,-0.931835,-0.218910,0.408802,0.079240,0.071510,-0.534395,-0.140564,0.059842,-0.003788,0.025373,-0.050381,0.053010
0.614802,-0.000230,0.277825,0.051115,-1.654476,0.079386,0.250136,-0.755802,0.526189,-0.382057,-0.165811,-0.245924,-0.916094,0.062205,-0.503285,-0.117362
0.401127,-0.654366,0.250029,0.335275,-0.360067,0.514132,-0.391368,-0.405309,0.390993,0.970142,-0.056843,-0.216741,0.701555,0.003682,0.424009,-0.043806
0.183299,0.107596,0.501584,-0.265393,-0.178536,-0.182887,0.120576,0.027999,-0.284623,-0.165818,-0.816585,0.265295,-0.439197,0.528585,-0.035924,-0.026825
0.078671,0.041187,0.184938,0.176469,0.256255,0.104755,0.308367,-0.152019,0.248959,-0.209807,0.326673,0.429732,0.125108,-0.179861,0.145626,-0.028228
0.573603,-0.737610,0.069853,0.213929,1.059748,-0.026488,-0.006255,-0.068283,0.043395,0.107537,-0.963011,0.078100,0.208280,0.346479,-0.151519,0.694585
-0.237672,0.220630,0.078194,-0.093448,-0.410653,0.429743,0.155318,-0.044230,-0.197652,0.430156,-0.054206,-0.127947,0.168757,0.172988,-0.194396,0.738345
0.802605,-0.119663,-0.048906,0.046150,-0.207668,0.085257,0.008344,0.566479,0.169109,0.187606,-0.203250,0.859371,-0.224003,-0.202949,0.063358,-0.019426
-0.100974,0.143774,-0.349081,0.236359,0.307111,0.001991,-0.165405,-0.000836,-0.595608,-0.023705,0.080283,-0.102791,0.033318,0.574736,-0.061079,-0.299972
1.175858,0.407064,0.227188,-0.478868,-0.505574,0.736680,0.658364,-0.039483,0.304225,0.255260,0.128271,0.107780,0.395486,0.292705,0.123214,-0.158189
-0.701145,-2.099933,-0.575773,1.481673,0.866411,0.564337,0.866750,1.261275,1.361371,-1.084020,1.396547,1.635057,-0.006642,-1.092681,0.177048,-0.389800
-1.514369,0.561817,-0.450307,0.285138,-0.325851,-0.902894,0.390095,-0.085854,-2.003340,0.009407,0.222086,-0.177192,-0.122097,-0.210348,-1.048705,-0.241044
-0.781452,0.008850,0.483613,0.143075,1.153629,-0.385229,1.388883,0.023796,-0.817408,-0.024367,0.344282,-0.065001,-0.051259,-0.240208,0.372225,-0.282259
-0.162647,0.488480,-0.670401,0.248502,-0.182310,-0.148369,-0.108971,0.613703,-0.425275,0.213576,0.292556,0.530561,0.318206,0.489381,-0.039344,-0.106816
0.683471,0.235067,0.163432,0.398083,-0.127786,-0.304262,1.023330,-0.360638,-0.007809,0.617200,0.367123,-0.080842,0.102567,-0.068124,0.291861,0.033113
0.667379,-0.305732,0.911578,-0.107731,0.254301,0.119099,-1.310798,-0.847471,-0.154293,0.484156,-0.712520,-0.972732,-0.215446,0.121786,0.407240,-0.096598
-0.016566,-0.022215,-0.039467,0.021775,-0.010529,-0.035014,0.016934,0.025265,0.001878,-0.022313,0.012311,0.027957,-0.032912,-0.020409,-0.038101,0.049360
0.155255,-1.402989,-0.249285,0.621500,0.275827,-0.044205,-0.304360,-0.251443,-0.109450,-0.235871,0.417155,0.472494,0.580113,-0.678868,0.120298,0.516387
-0.401959,-0.248891,-0.277668,0.630669,-0.248042,-0.279144,-0.139252,1.008827,-0.076878,-0.172745,0.619675,1.028175,-0.700806,0.467372,-0.628061,0.266880
-0.931077,0.008805,-1.250927,-0.092112,0.116992,-0.445194,-0.539002,-0.611503,-0.268112,-0.602283,-0.244250,-0.265143,-0.818410,-0.184236,-0.956096,-0.427160
-0.476176,-0.791880,0.178766,-0.311809,-0.590819,0.224331,2.048362,-0.661288,0.347815,-0.749775,-0.894906,-0.481005,-1.096250,0.513949,0.873947,-0.033285
-0.013688,0.306786,0.010487,0.931924,-0.585244,-0.256478,0.820784,-0.002904,-0.359549,0.157269,-0.198258,0.353560,0.481062,-0.264961,0.182169,0.203097
-0.056951,-0.092142,-0.177618,-0.071285,0.087182,-0.127426,0.283266,0.914802,0.040752,0.048635,0.203506,1.182860,-0.005271,0.022405,-0.135587,0.139982
0.844370,-0.608792,0.445939,-0.270919,-0.117037,0.197160,-0.242203,-0.304598,-0.087350,0.380834,-0.330433,-0.526863,0.155187,-0.290964,0.765155,0.298053
-0.907124,-0.230545,-0.075775,0.918307,-0.172554,-0.171545,0.433900,-0.158286,0.409665,0.545517,0.410598,-0.038722,-0.416435,-0.099021,-0.180930,-0.340714
-0.270692,-0.095850,0.028238,0.835652,-0.645318,-1.043916,0.284491,-0.300649,-0.517465,0.444614,0.066208,0.726396,-0.057209,-0.814283,-0.254979,0.247585
0.934111,1.563462,0.030479,0.131153,0.056675,-0.015995,0.201974,-0.127600,0.632633,0.862418,-1.411883,0.817385,0.197523,-0.026541,0.660398,1.478917
0.794818,0.898819,-0.656056,0.374541,-1.370960,-0.231705,-0.387973,-0.536150,-0.144853,-0.767166,-1.215173,-1.059587,-0.658398,-1.019560,0.539621,0.294492
0.776803,-0.134067,0.008551,-0.750288,-0.367146,-0.078848,0.747223,-0.432997,-0.053742,0.331634,0.636759,0.207130,0.322556,-0.190463,0.846595,-1.043240
0.750460,0.210835,-0.184756,0.024587,0.327117,-0.507536,0.047755,-0.013393,0.111894,0.223345,-0.347641,0.006594,-0.149596,0.008020,-0.117769,-0.253502
-0.487976,-0.211355,-0.075166,-0.368659,0.314418,-0.203582,-0.384132,-0.426954,-0.829774,0.205184,-0.231870,1.046364,-0.598684,0.124596,0.114857,0.118839
0.656039,-0.292089,1.075821,-0.615400,0.353932,0.997944,0.366467,0.297884,-0.018234,-0.817003,0.492773,-1.615651,0.095060,0.226919,-0.428820,-0.049203
0.349218,-0.602913,0.275770,0.014637,-0.191030,0.400349,-0.377005,0.028132,-0.311607,0.097258,0.218370,0.067171,0.153659,-0.410200,-0.208763,0.324566
0.202582,-0.305846,0.293346,0.432893,-0.478095,-0.007529,-0.007813,-0.063740,0.287489,-0.062346,-0.404294,-0.017321,-0.033760,-0.030076,0.389432,-0.781610
0.387553,-0.418418,-0.671419,-0.658074,-0.558704,-0.864949,-1.124157,0.217705,-0.056551,1.146733,-0.653305,1.217216,0.345715,-0.520728,-0.035449,0.838299
0.251903,0.832175,-0.431270,0.003900,0.512214,-0.031160,-0.528336,0.450383,0.295007,0.658563,0.126326,0.042360,-0.029725,-0.169761,0.565352,0.566183
0.208432,0.056974,-0.189063,-0.735920,-0.551535,0.341311,0.587355,0.914473,-0.200978,-0.085305,0.275368,0.473219,-0.494191,-0.071027,-0.039109,0.587773
-0.507160,-0.317660,-0.064165,0.044177,0.075463,0.464441,0.440009,-0.183831,0.739089,0.092220,0.144250,-0.789074,-0.496219,0.124899,-0.367115,-0.297459
0.187433,-1.138310,-0.368274,1.094709,-0.472324,0.011672,-1.667571,0.706966,-0.818099,0.013758,-0.633142,-1.366007,-0.821055,0.315282,0.079624,-1.434749
0.356898,0.007856,-0.398567,0.369553,0.277434,0.445273,0.435154,0.199229,0.063103,-0.140988,0.639877,1.262536,0.537806,1.074947,-0.057960,-0.452448
-0.254858,0.465936,0.388515,-0.357286,-0.422041,0.374364,-0.333738,-0.100943,-0.350978,0.431471,0.980964,-0.004982,0.907824,-0.389028,-0.318375,0.038233
-0.165503,0.200871,0.030180,0.137274,0.032490,-0.030474,-0.485489,-0.529002,-0.280242,0.039793,-0.320448,-0.794846,-0.054148,0.348896,0.389247,0.309338
0.049014,0.380412,-0.604641,0.016762,0.068854,-0.234251,-0.084371,0.084354,0.420134,-0.086332,0.282040,0.394026,-0.502451,0.022892,-0.103488,-0.098027
-0.755996,0.257956,-0.260319,-0.320749,-0.286945,0.153916,-0.273345,-0.553642,0.566401,-0.613706,0.452503,-0.367841,-0.903063,-0.392343,-0.740635,-0.977951
-0.505905,0.357267,0.058421,0.387352,0.430442,0.350100,0.006256,0.397989,-0.282988,-0.240579,0.384275,-0.518869,0.572236,0.050028,-0.284774,-0.425794
-0.277624,0.249202,-0.329043,0.239224,0.260530,0.715020,-0.110839,-0.106045,-0.061097,-0.241302,-0.865008,0.077629,0.469365,-0.671433,-0.983971,-0.320546
-0.418946,-0.282163,-0.300844,0.371485,0.296428,0.201535,0.373142,-0.580904,-0.821772,0.191827,0.366296,0.581504,-0.325179,-0.120784,-0.493883,0.370202
0.125515,0.009891,0.591803,-0.097580,0.665490,0.513461,0.865078,0.228206,-0.025909,-0.444607,0.086265,-0.088474,-0.137172,-0.201994,-0.339308,-0.062941
0.226967,-0.300148,0.166653,-0.440447,-0.449171,0.144444,-0.279234,0.019732,-0.098106,-0.253165,0.066375,-0.016532,-0.405501,-0.219700,-0.195858,0.367817
-0.232380,0.179162,-0.045497,0.276891,-0.837795,-0.515696,0.084120,-0.192947,-0.706476,0.318678,-0.782582,0.268595,0.652514,-0.376765,-0.061128,-0.208991
-0.527620,0.110161,0.158608,-0.332611,-0.092536,0.511771,-0.677649,0.158676,-0.141947,0.199125,-0.232934,-0.305550,0.280500,-0.328062,-0.004442,-0.006171
-0.189995,0.192145,-0.576025,0.130739,0.028603,0.368251,0.051212,0.193875,0.118303,0.199651,0.256536,0.284727,0.085623,-0.545499,-0.457329,0.873068
-0.034178,0.619014,-0.445526,-0.451196,-0.532649,0.232525,-0.249795,0.900943,-0.198088,-0.007237,0.676078,0.477565,-0.215617,0.030610,0.363868,-0.458387
0.081394,-0.500087,-0.097802,0.049900,-0.426985,-0.378094,-0.187115,-0.440445,0.655751,-0.187624,-0.318022,-0.654909,-0.580700,0.155868,0.011135,0.175717
-0.085230,-0.050429,0.126207,0.364748,-0.205480,-0.333042,-0.580835,0.638062,-0.342297,-0.418006,-0.506195,-0.262616,-0.909937,-0.201571,-0.060018,-0.321442
-0.268282,0.081423,-0.735150,1.546283,0.120620,-0.283627,0.246388,-0.348617,-0.039493,-0.144915,0.209403,0.130911,0.030142,0.643923,0.199666,-0.511168
-0.402577,-0.813335,0.708133,0.138629,-0.322393,0.070795,0.124832,-0.026265,0.007768,-0.151124,0.051361,0.333682,-0.082213,-0.689973,-0.032540,-0.029480
-0.235925,0.377172,0.639374,-0.254488,-0.313712,0.033061,0.016032,-0.315738,-0.555678,-0.196655,0.050747,0.001130,-0.053982,0.365647,-0.050627,0.068351
-0.338513,0.459250,-0.368933,0.160840,0.737392,0.652338,-0.638566,0.102055,0.186766,0.127959,0.235833,0.231236,-0.478608,0.113946,0.618519,-0.517668
0.342508,-0.802658,0.451083,0.126094,0.701818,0.151364,0.384614,0.110382,0.078970,-0.211843,-0.321880,-0.160081,0.189829,0.001133,-0.046229,-0.272658
-0.014996,0.312075,-0.133850,-0.233856,-0.549512,-0.394277,-0.161316,0.471452,0.099514,-0.169519,0.128437,-0.146233,-0.191586,-0.164469,-0.024634,-0.240615
-0.044580,-0.041567,0.656996,-0.019313,-0.077455,0.221298,0.197076,-0.153471,-0.150550,-0.570533,0.469689,-0.294005,-0.015846,0.398445,-0.398385,-0.135677
0.192613,-0.225820,-0.822856,0.912823,-0.014094,0.028933,-0.344890,-0.112255,-0.225008,-0.301445,0.194678,-0.393222,0.424449,0.380896,-0.543306,0.095278
-0.392824,0.108233,0.210667,-0.045049,0.405636,0.003145,0.379362,0.224431,0.061620,-0.012806,-0.178522,-0.497929,0.434328,-0.411765,-0.036992,0.292295
-0.196714,0.224606,-0.205704,-0.008331,0.296619,0.659398,-0.000771,0.007666,0.084478,-0.418083,0.140704,-0.273602,0.358997,0.068058,-0.332873,0.274381
-0.270198,0.236054,0.491179,0.315810,-0.048872,0.451651,0.504779,-0.121391,0.042207,-0.072166,0.587745,0.513185,-0.135521,0.149916,-0.259156,0.129081
0.102975,0.209483,-0.393361,-0.134387,-0.195282,-0.718801,-0.015086,1.102524,-0.193191,0.139980,-0.292874,0.249333,-0.219144,-0.408750,0.070639,-0.100880
-0.063434,-0.226304,0.432408,0.137655,-0.313455,-0.294695,0.207401,0.092937,0.459949,0.158767,0.398844,-0.093914,-0.717695,-0.074111,-0.076806,0.273329
0.240550,-0.024799,0.272259,-0.210348,-0.001072,-0.065621,0.048543,0.103577,-0.140270,0.625454,0.047016,0.235936,-0.446991,-0.017965,-0.085263,0.027920
0.009734,0.111828,-0.187133,0.189877,-0.247945,-0.144942,-0.285140,-0.181067,-0.417736,0.026619,0.474492,-0.031945,0.231378,0.415321,-0.234442,0.079763
0.250982,-0.064804,0.118087,-0.389874,0.076881,0.187230,0.185640,-0.163326,0.116599,0.101290,0.246212,0.443723,-0.095667,0.150961,-0.201917,0.111098
-0.092722,0.048738,-0.380842,-0.307161,-0.010255,-0.394012,0.182170,-0.002215,0.016242,0.335753,0.160615,-0.619182,0.319791,0.341449,0.048810,-0.121312
-0.005131,-0.076795,-0.165681,-0.171256,0.507643,-0.136409,-0.434976,0.028785,0.221993,-0.094483,-0.129117,-0.671304,-0.021153,0.387128,0.209415,0.050490
0.459902,0.413856,-0.033484,0.082044,-0.068439,-0.314862,-0.204097,0.486266,-0.018958,0.211344,-0.232597,0.104735,-0.383891,-0.394126,0.464311,-0.193701
0.046366,0.051937,0.017964,-0.215052,-0.380574,0.171367,-0.278490,-0.056740,0.235433,0.525375,0.087059,-0.192612,0.351919,0.004798,0.124096,0.523715
0.165364,0.141199,0.217996,-0.054427,-0.067818,0.186748,0.245839,-0.117387,-0.909814,-0.235545,-0.248618,-1.067866,0.431371,-0.375530,0.068604,-0.481627
-0.446478,-0.183162,-0.279029,0.599202,0.586938,-0.128536,-0.339879,0.035025,-0.339606,0.147782,0.926621,-0.017060,-0.826059,-0.593527,-0.029644,0.402634
-0.040440,0.672060,-0.180219,-0.282622,-0.072310,-0.195086,0.248222,0.342358,0.106171,-0.160428,-0.178367,0.072672,-0.068351,-0.163756,-0.482789,-0.381033
0.015048,-0.552134,-0.179443,0.682344,-0.210639,-0.003476,0.228002,-0.494423,-0.183658,0.426524,0.025450,0.178764,-0.498200,-0.433809,-0.193995,0.012314
-0.240391,0.059197,0.652531,0.386781,0.481020,0.444873,0.003345,0.596596,-0.214176,-0.340425,0.741047,-0.152065,-0.408418,0.335351,-0.502263,-0.219125
-0.027513,0.125666,-0.217334,-0.188572,0.139038,-0.250271,-1.258577,0.559474,-0.303367,0.156677,-0.995069,-0.249341,-0.068010,-0.350789,0.659026,0.413969
-0.241114,-0.063405,0.379238,-0.316131,0.357072,-0.038620,0.512379,0.098605,0.371507,0.659207,-0.767225,0.553907,0.323088,-0.404915,-0.317099,0.099101
-0.543190,0.144791,0.501543,-0.592192,0.389465,0.659230,-0.337699,-0.403695,-0.045087,0.112906,-0.603463,0.329584,0.309901,-0.626729,-0.807213,0.279876
0.453380,-0.492389,0.129513,-0.101748,-0.316864,-0.091858,0.723724,-0.081530,0.321323,0.084336,-0.047859,0.038747,-0.658948,-0.335121,0.073005,0.293463
-0.376810,0.319707,-0.489499,0.668333,-0.288794,-0.256104,0.606167,0.360677,-0.267527,0.250073,1.164442,-0.221065,-0.002938,0.092083,-0.093683,-0.660345
0.427864,-0.227027,-0.093941,0.051257,-0.733468,0.261424,0.486008,-1.138170,1.401968,-0.462271,-0.004745,-0.558221,-0.092017,0.521404,-0.509948,0.219211
0.084477,-0.561247,0.749928,-0.931007,-0.391588,0.601525,-0.179823,0.673920,-0.214256,-0.321471,0.234056,-0.004093,-0.857973,0.260476,-0.319050,0.323856
0.080477,0.397390,-0.524536,0.030818,-0.004619,0.002294,-0.124919,0.046058,0.013976,-0.518959,-0.193369,0.963752,-0.264259,-0.263374,0.762632,-0.461738
-0.339200,0.147241,0.386498,-0.510554,0.463933,0.636504,-0.387782,0.007594,0.244401,-0.068516,0.109669,-0.002042,-0.121138,-0.251952,0.140217,0.486647
0.000715,0.216470,0.269699,-0.623139,-0.157182,0.121620,-0.392540,0.086807,-0.557919,0.182537,-0.186569,-0.256392,-0.236760,0.134669,0.249419,0.117959
0.401003,0.326349,-0.779997,0.056803,-0.003626,0.290179,0.202705,0.388779,0.394028,0.173922,-0.278759,0.751775,-0.108488,-0.189713,0.018534,-0.046112
0.089058,0.344046,0.460260,0.949498,-0.630844,0.279995,0.398697,0.536845,0.075128,0.467526,0.233694,-0.296957,0.070828,0.355078,1.635969,0.350987,0.283548,0.044918,0.434503,0.054868,-0.514367,0.376632,1.194607,0.152595,0.102123,0.582253,-0.032361,-0.108171,0.171257,0.336763,1.236718,0.136863,-0.687282,-0.051483,0.001501,0.234845,0.612762,-0.168581,0.143816,-0.058979,0.214553,-0.095200,0.353780,-0.310318,0.595808,0.383881,-0.274884,-0.497800,0.360909,0.153029,0.381059,0.254124,-0.281456,0.077608,0.290184,1.114169,0.312046,-0.036251,0.630280,0.783454,-0.376627,0.292939,1.668777,0.051987
-0.054147,-0.252145,-0.256644,-0.559738,0.080297,0.329639,0.030473,0.126234,-0.539249,-0.291474,0.038599,0.405878,-0.041934,0.369379,-0.267802,0.162504,1.464670,0.625359,0.916996,-0.367415,0.409327,0.347628,1.135096,0.941751,1.007821,0.468883,0.251094,0.346627,0.185788,0.649883,0.611051,0.982114,-0.117898,0.025272,-0.198528,0.342061,-0.414702,-0.255885,-0.216122,-0.074856,-0.036762,-0.050746,0.113408,0.052704,-0.151173,-0.073371,0.090143,-0.115832,0.190936,0.084424,0.358939,-0.352507,0.412189,0.345423,0.191486,0.083856,-0.179045,0.112341,-0.077404,0.875833,-0.042843,-0.016209,-0.259815,-0.107868
0.163215,0.060844,0.016271,0.042534,0.111453,-0.045161,0.004289,0.056854,-0.064837,-0.054000,-0.013911,-0.160119,-0.132425,-0.018233,-0.032177,0.033762
0.070710,0.125529
-0.211559,-0.096816,-0.055896,0.632185
-0.867832,-0.050891,0.030293,0.110854
0.488703,-0.104120,-0.004833,-0.435933
-0.232617,0.009462,-0.085947,-0.226156
-0.138369,-0.033444,0.246533,-0.201850
0.046836,0.148071,0.254177,-0.114041
0.748544,-0.086426,0.031390,0.154547
-0.170758,0.019832,-0.279345,0.127933
0.017860,0.430114,0.432277,-0.029241
0.400913,0.006252,0.002665,-0.038449
-0.316493,0.049766,0.118431,-0.427646
0.356070,0.195394,-0.006433,-0.112067
-0.014290,0.388768,0.338999,-0.112936
-0.646299,0.100278,0.065792,-0.061967
-0.764187,0.017925,0.021400,-0.450974
1.234227,0.221382,0.185433,0.532802
-0.204878,-0.067974,-0.005939,0.531544
-0.288029,0.116555,0.161120,0.350702
0.586450,-0.047706,-0.035231,-0.379071
-0.026965,0.109481,0.066893,-0.208268
-0.009657,0.052259,0.123946,0.366488
1.005583,-0.078375,-0.101015,0.501402
0.189730,-0.015921,-0.117966,0.282454
0.124048,0.568268,0.423766,-0.034220
0.039948,-0.039805,0.039510,0.052583
0.185692,-0.019178,0.078557,-0.095616
0.131972,0.167686,0.087982,0.120753
0.153311,0.149801,-0.008724,-0.063641
-0.378442,-0.038850,0.116814,-0.031684
-0.511791,0.059072,0.044851,-0.055983
-0.580910,0.029913,-0.013246,-0.128986
0.027279,0.351431,0.343034,-0.019799
-0.268319,-0.001857,-0.144068,0.064867
-0.012621,-0.275455,-0.276477,0.020845
-0.833166,-0.044502,-0.089922,-0.199055
0.012731,0.105010,0.060249,-0.384382
0.083702,0.111027,-0.054252,-0.418559
-1.325511,-0.012905,-0.025880,-0.380639
-0.068384,0.060469,0.035789,0.397028
0.244157,0.181303,-0.025170,0.274161
-0.428963,0.149474,-0.132540,-0.043506
0.208998,0.180271,-0.207420,-0.007608
-0.156798,0.020560,0.088106,-0.614732
0.272808,0.121203,-0.032720,-0.134181
0.228635,0.092497,-0.201193,-0.139489
0.538813,-0.135501,0.017091,0.129197
-1.343283,0.093435,-0.038028,-0.297855
0.808773,0.010986,-0.036843,0.314540
1.082974,-0.137540,-0.033252,0.619909
0.498219,0.208719,0.134447,0.325375
0.430121,-0.035195,0.091368,-0.422828
0.784446,-0.073140,0.017454,-0.167458
0.397830,0.124109,0.113340,0.827608
0.011858,0.427295,0.424283,-0.053215
-0.202597,0.059168,-0.168271,0.521225
-0.649706,0.107318,-0.108147,0.129961
0.172129,0.134243,0.192339,0.025086
-0.290102,0.134457,0.159264,-0.072683
0.788061,-0.013171,-0.180438,-0.101678
-0.080298,0.125949,-0.299010,0.004310
-0.540106,0.057539,0.256958,-0.100642
1.851729,-0.039202,-0.012291,-0.020909
0.451131,-0.024976,-0.113232,0.305717
-0.328008,0.240065,-0.061422,-0.530909
-0.232007,-0.529929,-0.404195,0.671552,-0.540321,0.471306,0.405207,0.009181,0.002070,-0.721030,-0.166283,-0.412611,0.607259,1.761944,-0.436346,0.407769
-0.065488,0.416845,0.233298,0.063273,0.689262,0.120305,-0.075972,-0.309321,0.177560,0.375061,0.393143,-0.397945,-0.264910,0.151150,0.209713,-0.517998
0.092757,1.230568,-0.060300,0.679202,0.255091,0.245174,-0.492382,-0.238845,-0.128430,-0.765252,0.709707,-0.101740,0.516901,-0.466928,-0.186044,0.221717
-0.018591,-0.116469,-0.549639,0.469769,0.729491,-0.168106,0.405955,0.190095,-0.118781,-0.061154,0.853160,-0.312149,-0.476720,-0.422135,-0.530912,-0.531508
-0.105540,-0.308996,-0.059537,0.009359,0.939386,0.482945,0.163354,0.159170,0.274913,-0.755869,-0.089100,-0.123277,0.023380,-0.293466,0.048712,0.059098
0.155975,0.691901,-0.003817,1.180803,-0.725243,0.122544,-0.150310,-0.368280,0.705696,-0.466850,0.497685,0.824857,0.064940,0.009306,0.275690,0.139406
-0.241467,-0.887223,0.301098,-0.482007,0.171248,0.169849,-0.189082,-0.067752,0.421348,-0.418366,0.635403,-0.169595,0.043845,-0.514669,0.063065,0.468877
0.362874,-0.305312,0.095563,-0.158137,-0.193496,-0.280641,-0.220813,-0.003774,0.586744,0.157407,-0.751560,0.221894,0.345829,-0.145299,0.421546,0.290478
0.100009,0.835231,0.061824,0.221598,0.167321,0.143588,-0.349475,0.346059,-0.169542,0.901775,-0.118294,-0.102431,0.144424,0.448613,-0.117306,-0.433639
-0.211454,0.849032,-0.136632,0.539204,0.292536,0.011630,0.017416,-0.153905,0.180411,0.254164,-0.084269,0.007604,0.199803,-0.070566,-0.058213,-0.155361
0.000170,1.017047,0.046570,0.382665,-0.347858,-0.050568,0.199583,-0.757289,-1.008700,0.235364,-0.188145,-0.721913,-0.316972,-0.200165,0.483227,-0.187421
0.349102,0.912876,1.174756,0.173258,0.488405,0.388838,-0.320853,-0.553014,0.725639,0.219791,0.030659,-0.061756,0.812618,-0.466100,0.689461,0.185768
-0.148661,0.141103,0.181155,-0.131735,0.248681,-0.247038,0.236411,0.249759,0.325921,0.907728,-0.109962,0.514562,0.973580,-0.036054,1.191203,-0.093700
-0.293225,-0.782028,0.422205,0.295334,-0.088350,0.076419,-0.263001,-0.379295,0.251371,0.143447,0.242739,-0.044088,0.170160,-0.330714,0.333642,0.215073
0.148883,-0.256284,0.171428,-0.048812,0.187147,0.100396,0.237063,-0.482020,0.358618,-0.325796,-0.715712,-0.226492,0.285087,0.063932,-0.468621,-0.291116
0.719401,-0.445010,0.025601,-0.558258,0.194228,-0.205249,0.043662,0.231039,-0.420083,0.211643,-0.259207,0.481384,0.109035,-0.236259,0.085672,0.679308
0.156536,-0.106300,0.212198,-0.366664,-0.169229,-0.155182,0.614832,-0.322292,0.063807,0.634400,0.197292,0.326489,-0.354286,-0.427238,0.183849,0.481964
0.092145,0.520940,0.252772,0.497847,0.665992,0.600529,-0.642880,-0.559133,0.065068,0.712321,0.469675,-0.731764,0.364375,0.197055,0.288561,-0.726124
0.210647,0.555150,0.146586,0.321433,-0.290361,0.242405,-0.431792,-0.880458,0.017428,-0.699172,0.857572,0.101491,-0.041059,-0.144574,0.376844,0.517013
0.605094,0.398840,-0.031172,0.470254,-0.015276,-0.233102,0.432364,-0.124395,0.006351,0.172025,0.399729,0.001119,-0.304459,-0.110714,-0.074313,-0.501802
-0.471138,-0.169090,-0.023725,-0.062542,0.810952,-0.283859,-0.019613,0.025963,-0.127773,0.017963,-0.313589,-0.224571,-0.307314,-0.236713,-0.004823,-0.031819
0.122786,0.357192,-0.167056,0.277400,-0.703472,0.207488,-0.410821,-0.217733,0.210262,-0.928036,-0.138171,0.649360,0.444210,0.268258,0.162527,0.297953
-0.116399,-0.449625,0.108470,-0.538826,-0.444964,-0.418627,-0.016485,-0.117284,0.536555,0.075108,-0.282376,0.289183,-0.477671,0.136216,0.458303,0.391690
0.396130,-0.252077,0.810673,-0.739505,-0.093191,-0.099680,-0.853163,-0.810564,-0.162142,0.119810,-0.002344,-0.159472,0.547504,0.047221,0.269782,-0.433657
0.069110,0.415790,0.284683,0.444447,-0.072629,-0.191169,-0.037792,-0.024609,-0.079979,0.104091,0.336094,0.292325,-0.259324,-0.193264,0.026502,0.181142
-0.043836,0.558145,0.177647,-0.548699,0.323118,-0.133363,-1.001430,-0.062941,-0.294043,0.087116,-0.514887,0.459837,0.601713,0.387674,0.000868,0.181835
0.276727,1.340415,-0.132838,-0.139829,-0.195254,-0.219525,0.178937,-0.174860,-0.444854,-0.404873,-0.327702,-0.090123,0.065492,0.061824,0.241222,0.065195
0.606458,0.173395,0.124362,-0.418788,-0.005824,-0.135888,0.184416,0.022020,1.178638,-0.326372,0.336992,0.545017,0.786696,0.266118,-0.021673,1.086420
-0.316337,-0.369938,-0.120127,0.158555,0.186837,-0.162531,0.137151,0.027473,-0.284030,-0.487242,0.207985,-0.101224,-0.023342,0.024551,0.340718,0.076433
0.329759,-0.465132,-0.041025,-0.273337,-0.339767,-0.203714,0.146736,-0.143530,-0.429090,0.078005,-0.148194,-0.040894,0.006253,-0.111334,0.185630,0.008049
-0.025742,-0.561534,0.316890,-0.337300,-0.494744,-0.351931,0.414946,-0.281415,-0.007696,-0.535294,-0.663195,0.146943,-0.000903,0.002956,-0.092644,-0.188533
0.157720,-0.199712,0.770567,-0.685823,0.459639,-0.122995,0.099284,0.089657,-0.113639,-0.075117,-0.231766,0.047158,-0.285153,0.142570,0.450452,0.081629
0.042206,0.038514,-0.003204,-0.166924,0.111386,0.084070,-0.097984,0.525067,-0.098053,0.075505,0.273527,0.432308,0.379095,0.025077,-0.264964,-0.212310
0.408145,-0.025188,0.061363,-0.759036,-0.341838,-0.147566,-0.523451,-0.004591,-0.075120,0.220036,-0.346177,-0.285035,-0.430561,-0.104911,0.082371,0.354939
-0.263195,-0.176393,0.001937,-0.301178,0.128271,0.182679,0.388591,0.113576,-0.030888,-0.166447,0.316334,0.270703,0.200244,0.035537,-0.047676,-0.190220
0.450384,-0.042091,-0.019195,0.128270,0.061980,0.231203,-0.606951,0.053762,0.052508,-0.020778,0.038332,0.037423,0.067816,-0.025959,0.053938,-0.019509
0.145253,-0.071621,0.126767,0.452391,0.434596,-0.116179,0.681494,-0.069753,0.156497,-0.040850,0.413344,-0.511386,-0.133655,0.014907,-0.306059,-0.167888
0.213078,0.205384,-0.041123,0.808377,0.441173,0.126970,-0.225429,-0.257987,0.044677,-0.011422,0.522400,-0.307145,0.037004,-0.124704,-0.042853,-0.158523
-0.065439,-0.000600,-0.412365,0.147200,0.169304,-0.113149,0.050040,0.087000,0.150961,0.000399,-0.442187,0.178045,-0.010330,0.132031,0.002513,-0.234001
0.113302,-0.356282,0.075934,-0.049689,-0.111787,0.082861,-0.481454,0.132501,0.072805,0.212742,-0.689783,0.219211,0.150509,-0.067204,0.433920,0.252739
0.073626,0.538339,-0.413857,-0.023183,0.185896,-0.128696,0.173089,0.150290,-0.214044,-0.092004,0.408279,0.116073,0.316921,0.060840,0.104627,0.298191
0.480484,0.075310,0.010116,0.123320,-0.224484,-0.110560,-0.378380,0.015773,0.287846,0.036500,-0.768103,-0.437598,-0.312895,-0.068701,-0.039078,0.021647
-0.251625,0.236421,-0.112293,0.089684,-0.167342,-0.004626,-0.340722,-0.129870,0.201348,-0.031634,-0.599556,0.382184,0.390567,-0.294892,0.090527,0.412972
0.005610,-0.287502,-0.201191,0.324804,-0.036226,-0.138099,-0.559887,-0.084397,0.007573,-0.195698,-0.799208,0.073648,-0.051482,-0.006881,0.240949,-0.133656
-0.036956,0.135821,-0.013791,0.233778,-0.516989,0.189732,0.199023,-0.198263,0.493509,0.099762,0.448325,-0.434139,-0.542552,0.487649,0.214710,-0.420931
0.071424,-0.144721,0.022526,-0.111087,-0.104133,-0.057123,0.057405,0.469081,0.157444,-0.270254,0.096784,0.338592,-0.150825,0.115581,0.110639,-0.530835
-0.095024,-0.688480,0.277824,-0.340020,0.102236,-0.023168,0.014212,0.141007,-0.319047,-0.103446,0.134904,-0.158757,-0.025665,-0.187328,-0.086065,-0.193014
0.005323,-0.043546,-0.022564,0.361742,-0.091166,0.291384,0.270172,0.029597,0.313345,-0.130323,-0.210142,-0.204414,-0.445656,0.336418,-0.131766,-0.066617
0.067454,-0.056885,-0.053272,0.131545,0.233137,-0.061488,0.458082,-0.172259,0.102139,0.047568,0.115317,0.358549,0.274201,0.005001,-0.342094,-0.060831
-0.557139,-0.038411,-0.066077,0.524845,0.701168,0.041101,-0.037099,-0.465794,0.061969,-0.600909,0.477836,-0.168111,-0.074682,-0.324067,-0.075495,-0.165968
-0.040251,1.274559,-0.250595,0.883191,-0.027061,0.020052,-0.273537,-0.463446,-0.356863,-0.199209,0.941849,0.178178,0.151906,0.252909,0.060414,0.036191
0.059640,0.108754,-0.447636,1.148859,0.653804,0.270553,-0.410435,0.172954,0.007335,-0.696525,0.568109,-0.125086,0.423810,0.165159,-0.286759,0.905274
-0.143182,0.111520,0.235468,0.171166,0.442840,0.047041,0.001749,-0.491909,0.358372,-0.288063,0.150129,-0.645660,-0.731533,-0.473161,0.361356,-0.367312
0.428852,-0.277403,0.080205,0.045400,-0.122218,0.309932,-0.926094,-0.261095,0.427913,0.162540,-0.282875,-0.097023,-0.165622,-0.106804,0.332339,0.125033
0.175661,0.509939,-0.116161,-0.936834,-0.091583,-0.667938,0.125208,0.060225,-0.064077,0.137760,-0.865051,0.157194,-0.052566,0.619626,-0.057089,-0.273635
0.198310,-0.289262,0.045526,-0.366206,-0.687856,-0.313658,0.201071,0.166327,-0.167257,-0.078672,0.064897,-0.199592,-1.039635,0.083016,-0.443884,-0.308300
0.092163,0.219530,-0.058710,-0.242095,-0.019752,-0.276660,0.578758,0.215152,-0.082017,-0.630976,-0.090933,0.121880,-0.233292,-0.122444,-0.025517,0.271988
0.119487,0.285379,-0.106043,0.690539,0.160287,0.336353,0.243472,-0.165934,-0.101697,-0.932526,0.062938,0.208048,-0.287043,0.601114,0.306963,-0.047073
0.097100,-0.031525,-0.421598,0.242136,-0.431290,-0.372817,0.576985,0.174746,-0.592245,0.538526,0.167893,0.042703,0.094022,0.551566,0.114725,-0.240449
0.262366,1.662470,0.536898,-0.232660,-0.334928,-0.385642,0.301196,-0.332226,0.105498,0.107692,0.702970,0.359003,0.137611,0.447464,0.199806,-0.593487
-0.421901,0.379909,-0.014889,0.204355,-0.129482,0.101532,0.147599,-0.146736,0.186602,-0.322323,-0.001390,0.105371,0.161003,-0.182082,0.142673,-0.416374
-0.348898,-0.042558,-0.019486,0.710697,-0.047739,-0.365430,0.464669,-0.256015,-0.926349,-0.416006,0.013419,-1.161007,-0.667084,0.073850,-0.004116,-0.472514
-0.282337,-0.079006,0.127109,0.118618,-0.290254,-0.033803,0.183532,-0.173869,-0.043181,-0.177360,-0.595010,-0.170783,-0.220285,-0.381012,-0.429839,-0.548886
0.319609,0.498828,0.139689,-0.731113,-0.121428,0.310587,0.045571,0.379047,-0.038119,-0.191118,-0.717857,0.388917,-0.325373,0.356908,0.081605,-0.255026
