0.280398,0.164524,-0.028994,-0.102431,-0.038515,0.055674,-0.053111,0.030058,0.062313,0.318937,-0.003659,0.141554,0.214324,0.083385,-0.126412,0.025489
0.360139,-0.024905,-0.092800,-0.323615,-0.375390,0.060570,0.327341,-0.346473,-0.082044,0.240281,-0.172163,-0.067017,0.054951,-0.113919,0.227051,-1.073300
-0.039848,0.139360,0.577853,0.530410,-0.253119,0.059662,-0.136161,-0.033980,-0.092522,-0.152983,-0.539030,0.201094,0.045535,-0.257916,-0.199622,0.447923
-0.128119,0.072553,-0.068358,-0.142245,-0.037876,0.019541,0.111614,-0.071391,-0.010285,0.147038,0.097586,-0.139351,0.005818,0.181043,-0.005771,-0.147280
-0.129912,-0.039285,0.320972,0.191002,-0.211287,0.197774,0.162681,0.150597,-0.192837,-0.006835,0.115423,0.272729,0.093858,-0.137488,0.177060,0.138838
0.022388,-0.137034,0.136219,0.120782,-0.241892,0.171943,0.266330,0.253615,-0.032222,0.112962,0.337653,0.120689,0.093510,0.033729,-0.043112,0.325473
0.001986,-0.412157,-0.200098,-0.233566,-0.359828,0.269188,0.038170,-0.241703,0.164125,-0.058409,0.278922,-0.162958,0.029889,0.141788,-0.174888,0.218596
0.064925,-0.429705,-0.030707,-0.237705,-0.285802,0.069170,0.028510,0.190341,-0.480588,0.346081,-0.803699,-0.760898,0.084598,-0.094910,0.999968,-0.111276
-0.019162,-0.219146,0.216772,-0.122132,0.077153,0.270771,0.309291,0.438293,-0.034673,0.128779,-0.296324,-0.383939,0.003730,-0.097116,-0.194869,-0.059057
-0.042909,0.114196,0.137172,-0.084479,0.078153,-0.116883,-0.133433,-0.057421,0.067375,-0.069415,0.003085,-0.056968,0.017852,-0.121673,-0.015320,0.066679
0.186728,0.163068,-0.353276,0.104713,0.228127,0.007816,-0.181606,-0.129202,0.146794,0.094018,-0.185338,0.080433,-0.013954,0.060735,-0.050320,0.090292
0.228141,-0.034450,-0.715920,-0.630349,0.187670,0.099031,-0.098554,0.292488,0.294788,0.371075,0.334700,-0.422577,0.094000,0.106679,0.026320,-0.033685
0.057505,-0.147596,-0.222625,0.086474,0.099616,0.074586,0.036673,0.209506,0.092890,0.212190,0.189897,0.103291,-0.032288,0.004544,-0.232860,0.005580
0.301127,-0.050289,0.133671,0.103685,-0.041595,0.094119,0.132806,0.053103,-0.013907,0.195658,-0.163838,-0.237221,0.124649,-0.088827,-0.095811,-0.164439
-0.173759,0.146317,-0.023861,0.180039,0.001040,-0.229508,-0.174786,-0.674648,-0.348985,-0.332451,-0.066254,0.521751,-0.172591,0.005281,0.040407,-0.703771
0.250783,0.481758,-0.154885,0.032920,-0.183190,0.175390,-0.237824,0.009972,-0.303417,0.303431,-0.264622,-0.243998,0.443078,-0.161382,0.372461,0.387896
0.444190,0.045252,0.134239,0.053841,-0.059421,0.103756,0.013334,0.114441,0.002302,0.223792,-0.147823,0.005114,0.306769,-0.038665,-0.035587,-0.085692
0.051727,0.442366,-0.023279,-0.122738,0.033709,0.039449,0.149928,0.064559,0.107458,-0.010052,-0.142765,-0.111121,-0.065897,-0.231724,0.335729,-0.361847
0.211035,0.440749,0.589714,-0.254375,0.022808,0.012728,-0.029611,-0.192130,-0.015728,0.341177,0.021311,-1.280733,-0.148173,0.249930,0.185661,-0.082426
0.067444,0.390194,-0.028537,-0.041853,0.120216,0.089910,0.110511,0.018303,-0.045181,0.265715,-0.054140,-0.181241,0.149503,0.088793,0.183746,0.030967
-0.102891,0.098680,0.066770,0.458883,-0.055668,0.206233,-0.007991,0.233109,-0.068262,0.085364,0.186521,0.423279,0.086362,-0.001020,0.420378,0.023094
0.100843,-0.163011,0.256211,-0.224003,-0.333043,0.435495,0.406656,-0.007705,-0.108027,0.240523,-0.058645,-0.056995,0.042590,-0.240763,0.304242,0.475475
-0.039661,-0.650889,-0.410639,-0.227040,-0.250253,-0.174602,0.296288,-0.004411,0.041839,-0.151239,0.199449,0.251925,0.012367,-0.020365,0.003192,-0.200863
-0.134924,-0.526823,-0.179027,-0.736432,0.029887,-0.121772,-0.011574,0.107074,-0.074273,0.227732,-0.310741,-0.178577,-0.131142,-0.041461,0.130542,0.255642
-0.085453,0.011308,-0.127752,-0.136526,0.253956,-0.075011,0.122296,0.315205,0.004924,-0.022589,0.117813,-0.041579,-0.054950,0.038262,-0.117735,0.152903
-0.038851,0.091452,0.014319,-0.023447,-0.151506,0.012159,-0.073923,-0.103269,0.112584,0.103419,-0.023933,-0.011327,0.105188,0.060645,0.050367,0.180354
0.081298,0.474045,-0.065830,-0.118152,-0.151832,0.147979,0.179187,-0.537564,0.188026,0.472436,-0.199947,0.044565,0.075523,-0.191414,-0.014662,0.032203
0.152354,0.037101,0.193380,-0.122437,-0.138337,0.144749,0.188691,-0.040722,-0.173441,0.202360,-0.264452,-0.257441,0.305672,-0.098097,0.034889,0.078651
-0.100423,-0.809828,-0.125343,-0.202572,0.134975,0.141624,0.048954,-0.039254,-0.421900,0.169665,0.197013,0.389127,0.325962,0.154220,-0.009769,0.260705
-0.009184,-0.284709,0.041829,0.185480,-0.208345,-0.090060,-0.045587,0.340521,-0.249338,-0.155288,0.086246,0.109324,-0.059273,0.153068,-0.227527,0.118778
0.147008,-0.037294,0.113606,0.145049,-0.024144,-0.169348,0.309806,-0.498218,0.118111,0.137858,-0.312619,0.182708,0.021572,-0.256891,-0.271879,-0.350261
0.122422,0.191966,0.045144,-0.146389,-0.002355,0.144288,-0.165138,-0.047870,-0.056343,0.095654,0.078504,-0.082940,0.183192,-0.096612,0.373897,0.463755
0.088052,-0.007356,0.036211,0.092420,0.014492,0.112276,-0.062750,-0.103818,0.013164,0.160946,-0.144377,-0.190345,0.025965,-0.086606,0.183328,-0.117368
0.166246,0.053474,0.066233,0.061058,-0.179010,-0.053232,-0.003320,-0.114123,0.068699,-0.077344,0.087904,0.081330,0.080419,-0.031271,-0.045398,0.055089
0.152804,-0.170965,0.404388,-0.155838,-0.298602,0.224881,0.071213,0.381577,-0.140801,0.346401,-0.310902,-0.202389,0.262680,-0.149912,0.301843,-0.234466
0.131523,0.386930,0.041531,0.246736,-0.032453,0.179013,-0.095385,-0.054334,0.030974,0.060087,-0.168258,0.118101,0.043483,0.037028,0.047037,0.172198
0.088767,0.040413,0.078447,-0.252380,0.054736,-0.079751,0.184894,0.388540,0.400112,-0.080815,0.022489,-0.145929,-0.168305,0.067529,-0.599809,0.361210
0.014752,0.086842,0.103106,0.018325,-0.198909,0.137230,-0.002796,-0.130818,-0.015642,0.137965,0.006296,-0.039460,0.153172,-0.040921,-0.045672,0.104975
-0.064733,-0.100736,0.024236,-0.195016,-0.029456,0.016307,0.158326,-0.113061,-0.094642,-0.111443,-0.015817,-0.174685,-0.051739,-0.165569,0.022469,-0.183497
0.180902,0.153190,0.041309,-0.027480,-0.065339,0.235132,0.319052,-0.191099,0.061457,0.182698,-0.094385,-0.019955,0.087581,-0.102927,0.013286,-0.043907
0.189433,0.115507,-0.114870,-0.244774,0.115501,0.100192,0.035421,-0.123592,0.002866,0.132805,-0.155198,-0.133569,0.013588,-0.035098,-0.094583,0.227187
0.080068,0.035090,-0.117851,-0.009734,0.087220,0.066064,0.009749,-0.120325,-0.122943,0.111088,0.058115,0.105532,0.068704,0.022093,0.042499,0.102338
0.116154,0.084934,0.069792,-0.047730,-0.020169,-0.202990,-0.212173,-0.057848,-0.058097,0.102289,0.090562,-0.206372,0.088707,-0.070933,0.023831,-0.426544
-0.101304,-0.475886,-0.586391,0.058693,0.089395,-0.062901,-0.086684,-0.176075,-0.186739,-0.540186,0.309294,0.848061,-0.256724,0.005489,-0.245534,-0.089215
-0.045157,-0.078905,0.087693,0.047477,-0.069099,-0.058020,0.022269,-0.018339,-0.097987,0.077740,0.046798,0.027462,-0.067750,-0.163288,-0.003748,-0.063766
0.149162,-0.210573,0.040461,-0.397309,-0.019559,0.226174,0.067234,0.283262,0.186464,0.085992,-0.054853,-0.270577,0.270604,0.206994,0.288522,-0.257082
0.157493,0.406701,0.059416,-0.022539,0.224607,0.145133,-0.168508,-0.055042,0.349305,0.263905,-0.020783,0.277923,0.052050,0.134779,0.254670,0.052653
0.022785,-0.496904,0.043073,0.208858,0.061587,0.145631,-0.128954,-0.043702,0.172777,0.056164,-0.045372,-0.003649,0.105306,-0.270588,0.038553,0.204751
0.265674,-0.055268,0.282341,-0.094361,-0.111043,0.207076,0.270393,0.087612,0.003069,0.175130,-0.181276,-0.126589,0.134209,-0.246012,0.007824,-0.237895
-0.022255,0.066687,0.445821,0.232304,-0.062410,-0.215359,-0.121058,0.128657,-0.649125,-0.104810,0.376903,-0.149571,-0.087180,-0.027631,0.148515,-0.454899
-0.008508,0.244417,0.228060,0.098235,-0.169549,-0.053218,-0.053265,-0.014140,-0.016973,-0.333222,0.065606,0.080910,0.005649,-0.137426,-0.064212,-0.498325
0.035516,0.057440,0.263770,-0.225322,-0.196133,0.132640,0.019917,0.119953,-0.197888,0.115830,-0.180480,-0.038530,0.138761,-0.298590,0.131380,0.026356
0.127806,-0.185874,0.236982,0.109450,-0.145916,-0.042837,0.211581,0.190351,0.118777,0.126603,-0.109115,0.098077,0.072025,0.078610,0.017163,0.053979
0.113503,0.152913,0.085985,-0.142675,-0.039991,0.326181,0.102708,-0.069342,-0.038310,0.428821,-0.046923,-0.176605,0.306310,-0.002991,0.385480,0.021588
0.083223,0.022116,0.141821,-0.003166,-0.296070,0.167831,0.298397,-0.083481,-0.220669,0.303046,-0.159179,-0.254213,0.140617,-0.355935,-0.149625,0.102648
0.289793,-0.156167,0.085289,0.153994,-0.400666,0.294692,0.382843,-0.090755,-0.047956,0.226310,-0.279721,-0.026283,0.016003,-0.264754,0.157956,0.102641
-0.098106,-0.495715,-0.073813,-0.111515,-0.060633,0.213436,0.192423,0.171898,0.047402,-0.144154,0.065609,-0.229182,0.057825,-0.011100,-0.170273,0.075166
0.341046,0.169167,0.054075,0.012962,-0.273813,0.292646,0.211232,-0.121519,-0.011676,0.288264,-0.272834,-0.086831,0.322035,-0.112612,0.089951,0.050140
0.136408,0.194218,0.144141,-0.083477,-0.229525,0.061532,0.289438,-0.056634,-0.070952,0.142884,0.027502,-0.107094,0.100533,-0.222344,-0.174196,0.280059
0.263205,0.048899,0.253265,-0.331481,-0.135567,-0.079875,0.021003,-0.226987,0.069731,-0.000132,0.063438,-0.213344,0.129256,-0.224219,0.003140,-0.316917
0.083657,-0.453894,0.207760,-0.113436,-0.204504,0.000718,-0.013216,-0.069422,-0.164518,0.029792,-0.061303,-0.020236,0.247448,-0.094703,-0.052082,-0.116442
0.241869,0.041806,0.326674,0.125661,-0.187569,0.395092,-0.073105,0.071158,-0.031675,-0.002382,-0.243986,-0.053470,0.027172,-0.090743,-0.074322,0.194471
-0.213880,0.105233,-0.130144,0.372198,-0.033869,-0.270618,-0.185004,-0.975802,-0.354825,-0.227262,-0.044029,0.383180,-0.294011,-0.282723,-0.083257,-0.554863
-0.126327,-0.170285,-0.041035,-0.085411,0.087349,0.053246,-0.217433,-0.018899,-0.004550,0.036037,-0.049768,-0.047712,-0.012212,-0.039405,0.120757,-0.011785
-0.057623,0.170240,0.011314,-0.116132,0.237507,-0.096151,0.147635,-0.339638,-0.271245,-0.110092,-0.129778,0.054598,0.115429,-0.219748,-0.065033,-0.081896
-0.210310,-0.166842,0.500058,-0.242886,0.093271,-0.022318,0.218461,-0.261002,-0.024730,-0.101374,-0.090399,0.484660,-0.022507,0.012182,0.338443,0.162434
-0.460205,-0.000915,-0.284871,-0.184074,-0.270320,-0.147980,0.367946,0.043663,0.048376,0.095420,0.334471,0.030454,0.168168,-0.357269,0.159671,-0.119723
-0.130328,-0.113985,-0.179782,0.118612,0.082869,0.094225,-0.236133,-0.155809,-0.060989,-0.050584,0.231827,0.055229,-0.099227,0.077979,0.090081,0.139894
0.130750,0.051867,-0.272762,0.217623,-0.069176,-0.237999,-0.020839,-0.025040,0.119592,0.093166,-0.074774,-0.308210,0.112475,-0.052617,0.036808,-0.381804
-0.178181,-0.030088,-0.207506,0.090065,-0.035697,0.202372,0.213020,-0.021107,0.082016,0.084720,-0.270079,0.102147,0.174384,0.150817,0.062806,-0.018608
-0.054755,0.231698,0.022665,0.184655,-0.082585,0.103968,0.291179,0.235227,-0.215743,0.339795,0.075873,-0.166792,0.206273,-0.140733,0.193563,-0.340065
-0.142045,0.018508,-0.078904,-0.337931,-0.426549,-0.396321,-0.034967,-0.075960,-0.005777,0.247528,0.057431,-0.051623,0.132691,-0.473835,-0.139032,0.028055
-0.161000,0.147042,-0.350434,-0.108991,-0.200457,-0.325382,0.013263,-0.123339,0.217351,0.193587,0.501076,0.079760,-0.029658,-0.006330,0.003245,-0.074040
-0.031369,-0.228898,-0.091336,-0.223668,0.059986,-0.164753,0.081518,0.138653,-0.140995,0.029460,0.273929,-0.095763,0.002314,0.012796,0.145960,-0.077981
-0.023003,0.001335,-0.026348,0.021807,-0.275968,-0.048285,0.254492,0.085406,-0.365538,0.237637,-0.074221,-0.345788,0.356458,0.140623,0.115605,-0.289567
0.333231,-0.224145,-0.097708,-0.160281,0.074557,-0.141661,0.497354,-0.245032,-0.149292,0.199482,0.401219,-0.193775,-0.050340,0.004716,0.029905,-0.143212
-0.098063,-0.000335,0.068201,0.069421,-0.015210,0.039839,0.201897,0.060965,-0.217295,0.042639,0.128623,-0.222090,0.224442,0.061387,0.410423,0.001594
-0.025284,-0.146107,0.313030,-0.344637,-0.039888,-0.191503,-0.182727,-0.243670,-0.212376,0.426984,-0.045944,-0.390536,0.182783,0.298371,0.373454,-0.014647
-0.055045,-0.063204,-0.023958,-0.105637,-0.316920,-0.184413,0.152114,0.267753,0.272048,0.097992,0.463023,0.111566,0.020106,-0.011097,0.092390,0.063360
-0.144014,-0.076631,-0.317298,0.110137,0.009795,0.073158,0.414678,-0.143474,-0.324948,-0.130172,-0.192299,0.026645,-0.013726,0.023932,-0.029556,-0.118559
-0.225161,-0.106042,0.131987,-0.233889,0.122609,-0.203987,-0.228584,-0.511351,-0.132519,0.187861,0.156979,0.076304,0.143408,-0.204747,-0.224670,0.212254
-0.396049,-0.385626,0.640267,-0.209289,-0.081506,-0.035315,0.088458,-0.063897,-0.256545,0.190563,-0.322853,0.091848,0.242681,-0.117149,0.470636,0.103902
-0.199697,0.253494,-0.251118,-0.157547,-0.141688,-0.151897,0.208638,0.042747,-0.165334,0.212891,0.295126,0.013006,0.115523,-0.257628,-0.072976,-0.221981
-0.109624,-0.014644,-0.047253,0.112013,-0.059819,0.294990,-0.282936,-0.219930,0.002749,0.012267,0.165119,0.083301,0.198931,0.083422,-0.010715,0.169330
-0.038928,-0.190223,-0.177692,0.021610,-0.317695,-0.312897,-0.042676,0.042872,0.111142,0.124670,0.167552,0.011066,0.048190,-0.142783,0.290734,-0.215072
-0.370419,-0.396241,-0.048203,-0.127503,-0.220762,0.038866,-0.143971,-0.136044,-0.135921,0.260308,-0.150602,-0.168138,0.207223,0.161069,0.280892,-0.234920
0.098829,-0.114301,-0.056840,0.040986,-0.277238,-0.080699,0.269014,-0.107613,-0.258586,0.452382,0.263690,0.313637,0.347059,0.075474,0.457129,-0.072996
-0.032555,-0.134699,-0.022154,-0.098255,-0.348061,-0.342641,0.122226,0.188129,0.246104,0.283125,-0.060703,0.006042,0.236016,-0.250561,-0.144535,-0.150374
-0.065610,-0.004238,-0.495889,-0.219719,-0.282065,-0.401100,-0.241658,-0.598980,0.326254,0.179185,0.486229,-0.075094,0.020642,-0.124904,-0.271314,0.087422
0.191884,-0.099747,0.023510,-0.188721,0.084836,-0.159517,-0.092041,0.092666,-0.018358,0.253722,0.302105,0.021106,0.070112,0.135911,0.211753,0.047781
0.209361,-0.022083,0.031308,-0.208601,-0.267810,-0.046219,-0.181802,0.235044,-0.007146,0.193714,-0.022165,-0.174674,0.408576,0.006322,0.172234,-0.103138
0.270623,-0.289126,-0.182489,-0.177473,0.047281,-0.264666,0.216876,-0.216930,-0.245863,0.075748,0.482956,-0.224435,0.139313,-0.039786,-0.164115,-0.543694
0.072948,0.114287,-0.020470,0.087011,-0.135982,-0.045918,0.158824,-0.042273,-0.243467,0.156203,0.131168,-0.173606,0.043083,0.150100,0.254140,-0.294822
-0.227327,-0.271450,0.221698,0.015720,-0.197088,-0.048820,-0.121447,-0.156693,-0.257048,0.196578,-0.030428,-0.393788,0.207368,0.569854,0.245918,-0.228007
-0.047620,-0.135244,0.150138,-0.184810,-0.285235,-0.287718,-0.330000,0.337491,0.047896,0.154935,0.323392,-0.072221,0.146082,0.258326,0.235357,0.024280
0.101348,0.090208,-0.342257,0.002503,0.046149,0.039307,0.240592,-0.216174,-0.271564,-0.201249,-0.196205,0.062614,-0.105022,-0.223965,0.101935,-0.142841
0.116011,0.190554,-0.067424,-0.047419,-0.187304,-0.274879,0.145402,0.037909,-0.026854,0.001926,-0.057470,-0.101166,0.043513,0.120001,0.021245,-0.192116
-0.073427,0.652290,0.174841,0.153694,0.073362,-0.095178,0.094739,0.027168,-0.162221,-0.144356,-0.156894,0.016912,-0.038731,0.182922,-0.022486,0.024518
-0.105387,-0.225895,0.044454,0.045449,0.016479,0.001474,-0.052875,0.034879,-0.061423,0.119941,-0.009048,-0.140456,-0.123464,0.144408,0.025389,0.147221
-0.127073,-0.187136,0.018903,-0.009566,-0.013822,0.219569,0.230255,0.132384,-0.066720,-0.081531,-0.190561,-0.144924,0.064005,0.134459,-0.056031,-0.182016
-0.039264,-0.162535,0.046527,0.037488,0.052029,0.176469,0.011854,-0.018844,-0.163395,-0.239827,0.115836,0.023178,-0.113261,0.107172,-0.173163,-0.081050
0.029090,0.029180,-0.046139,0.089446,0.166098,0.240154,-0.148141,-0.074891,-0.073004,0.061643,0.100918,0.047399,-0.035719,0.283907,0.013226,0.141551
-0.011360,0.081124,-0.062803,-0.123570,0.161739,0.183338,0.381533,0.064029,-0.093064,-0.065498,0.196169,-0.015515,-0.049048,0.070457,0.126296,0.070496
0.042681,0.105533,0.023704,0.117435,0.022428,-0.121971,0.082169,0.315259,0.074479,-0.149471,-0.173769,-0.002243,-0.174460,0.135681,0.089225,0.124640
0.045348,0.150021,-0.145919,0.065600,0.113418,-0.107749,0.036884,0.097952,0.492764,-0.062988,-0.192406,-0.010160,0.061316,-0.009647,-0.085130,0.012874
0.090141,-0.115299,-0.038079,-0.055671,-0.151945,0.025183,-0.177358,0.030450,0.084024,0.171307,0.102593,-0.043270,0.150272,0.028996,-0.066193,-0.117414
0.149751,0.032036,-0.191827,-0.186507,-0.170499,0.009556,-0.175804,-0.019320,0.205162,0.058052,0.350004,0.150136,-0.078945,0.176885,-0.013449,-0.080460
0.137572,-0.096721,0.056470,0.133094,0.230571,-0.025526,-0.111340,0.029780,0.202626,-0.014213,-0.117037,0.378018,-0.232302,0.125494,-0.115726,-0.023762
-0.068646,0.117391,0.110525,0.088017,-0.144014,0.028446,0.146695,-0.019852,-0.032683,0.242801,-0.054666,-0.135926,0.147020,-0.039306,0.021588,-0.048777
-0.090965,-0.141276,0.013429,-0.040139,0.034717,0.341973,-0.007385,-0.135841,-0.120032,-0.016010,-0.021986,-0.144364,-0.012258,0.351798,-0.215324,-0.048670
0.012359,0.073404,0.219908,-0.053921,0.077529,0.154244,0.177491,0.122892,0.027377,0.118878,0.086130,0.192499,0.078054,0.177420,0.241177,0.260869
0.062965,-0.053729,0.165764,-0.228298,0.198856,-0.202290,-0.108442,-0.119506,0.136831,0.016411,-0.219210,0.294347,0.013497,-0.146923,0.089798,0.342617
0.025329,0.125763,-0.084841,0.043510,0.071570,-0.160358,-0.033178,-0.178868,-0.209699,-0.110336,-0.157513,0.174838,0.006883,-0.129664,-0.293927,-0.079653
-0.159486,-0.126606,0.080378,-0.238501,0.042260,-0.281069,-0.008003,-0.099922,-0.054198,-0.000995,0.052351,0.005354,0.040612,0.041740,-0.120808,-0.188831
-0.202971,0.319771,-0.684756,0.208249,-0.342842,0.009571,0.314094,-0.071128,-0.082558,0.101981,0.534936,0.149254,0.297877,0.003586,-0.200411,-0.535531
0.096470,-0.142552,-0.061629,-0.081432,-0.136504,0.051129,-0.169428,-0.206803,-0.035127,0.121431,-0.065294,-0.102590,0.076913,-0.023410,-0.129750,-0.164120
0.050528,-0.252796,-0.430951,-0.084368,-0.195996,-0.289035,0.120019,-0.018758,0.009664,0.161773,0.170171,-0.209492,0.007988,-0.178066,0.126530,-0.274177
-0.013601,-0.008273,-0.204747,-0.025230,-0.024784,-0.075971,0.166339,0.067685,0.053811,0.171809,0.116389,-0.041619,0.261346,0.120837,0.185555,-0.077957
0.192151,0.004275,-0.452596,0.409920,0.071661,0.260837,0.177597,0.194962,0.086659,0.234096,0.163185,-0.034641,0.456928,-0.107573,0.082530,-0.618536
-0.167897,-0.250776,-0.083716,-0.102294,-0.221510,-0.070356,-0.179582,-0.257080,-0.008699,-0.005629,-0.331381,0.101407,0.112209,-0.256731,-0.094062,-0.007555
-0.135722,0.049808,-0.253268,0.015772,-0.346116,-0.174151,-0.067005,-0.078466,0.322575,-0.048972,0.122340,-0.208102,0.037864,-0.183011,0.001210,-0.168524
0.060078,0.013382,0.021102,-0.156163,-0.076062,-0.120998,-0.042435,0.139912,-0.189325,0.194889,-0.031954,-0.184194,0.245099,-0.118586,0.279450,0.012925
0.012880,-0.151215,0.200566,-0.036749,-0.165228,0.112670,0.050960,0.133874,-0.311447,0.253365,0.129252,-0.047265,0.366135,-0.072871,0.374486,-0.061719
-0.085420,-0.177188,-0.114010,-0.042977,0.063910,-0.042885,0.130501,-0.180614,-0.160246,0.229770,0.207620,0.016052,0.015765,0.114316,-0.046040,-0.178589
-0.135565,-0.002732,0.053652,-0.068989,-0.146865,0.109075,-0.027357,-0.037874,-0.253343,0.047922,0.047514,-0.157362,-0.013115,-0.027354,0.082798,-0.014045
-0.066147,-0.465164,0.257607,-0.083922,0.036329,0.145464,0.039820,-0.229606,-0.244956,0.075645,0.183066,-0.150776,0.077585,0.215364,0.322105,-0.001479
-0.081311,-0.003601,-0.163069,-0.084279,-0.074483,-0.198844,0.047966,0.087432,0.212206,0.026409,0.161716,-0.045262,0.179777,-0.018643,0.246962,-0.069720
-0.142007,0.112370,-0.322951,-0.171428,-0.002100,-0.121497,0.013556,-0.160653,-0.277316,0.000474,-0.036616,0.144161,0.089424,-0.105008,0.048940,0.004305
0.158890,0.250758,0.460275,0.393994,-0.041911,0.141167,0.283487,0.202186,-0.015401,0.063268,0.014563,0.095310,-0.017923,0.346807,0.084128,0.030435,0.219642,-0.042219,0.226730,0.250443,-0.074617,0.311247,-0.217678,0.077554,0.017760,0.160338,0.220678,0.390645,0.307023,-0.055662,0.189975,0.121459,0.043577,0.189866,0.121661,0.031883,-0.091150,0.351783,0.208043,0.125468,0.218369,0.142634,-0.190768,0.202656,0.101192,0.096162,-0.116811,0.121195,0.192708,0.100718,0.199824,0.514585,-0.121407,0.275772,0.169459,0.301749,-0.098138,0.397228,0.391913,0.347366,0.284175,0.014308,-0.084452,-0.054104
-0.021275,0.501871,0.316207,0.138545,0.021839,0.214237,0.528224,0.287129,0.236635,0.109320,0.489978,0.086512,0.339043,0.204516,0.130954,0.314970,0.116427,0.774440,0.331217,-0.005291,0.257829,0.167311,0.282183,0.440133,0.002910,0.090911,0.307059,0.097976,0.295814,0.473231,0.465803,0.179935,-0.033611,-0.009653,0.090341,-0.234191,-0.094830,0.036608,-0.019655,0.108089,-0.204639,0.126545,0.130357,0.039567,0.203289,0.060004,0.206739,-0.072669,0.109344,0.435493,0.145265,-0.081661,0.210277,0.221776,0.368003,0.343611,0.132966,0.154847,0.284007,0.310173,0.011800,0.541477,0.333487,-0.110835
0.045687,0.105338,-0.266326,-0.087251,0.086689,-0.061706,-0.190288,0.099844,0.042645,0.125902,-0.051101,0.008861,0.103479,0.091536,0.007416,-0.047985
0.109997,0.035690
0.218889,0.056674,-0.171547,-0.099813
-0.045663,0.074518,-0.038300,-0.184799
-0.456623,0.026619,0.022395,-0.171921
0.021408,-0.051716,-0.117174,0.129936
0.197914,-0.028518,-0.024512,-0.187577
0.106260,-0.182732,0.081549,-0.178887
0.213543,0.027652,0.029000,-0.222116
0.186305,-0.028372,-0.030627,0.131191
-0.076044,-0.008698,0.026316,0.042058
0.149037,0.313746,0.337210,0.072036
-0.183395,0.053557,-0.181431,0.022643
0.440979,-0.060485,-0.099298,0.105339
0.236076,-0.002928,-0.006961,0.068791
0.043863,0.464415,0.415168,-0.175513
0.424174,0.153114,-0.078586,0.374541
0.162441,0.010511,0.054332,-0.305697
0.223632,0.062798,-0.105568,-0.182671
0.000556,0.068664,0.002738,-0.232787
0.970801,0.159636,0.034154,0.159448
-0.051001,0.021064,-0.019317,0.408205
-0.141796,-0.011021,0.119538,-0.350978
0.033231,-0.058474,0.045034,-0.074558
0.227197,0.049807,0.080083,-0.079471
1.342934,0.020631,0.128520,0.680354
0.040773,-0.040961,0.161369,0.055975
0.022981,0.294221,0.242939,-0.061162
0.594156,0.063512,0.101287,0.166107
-0.016126,0.419546,0.530933,-0.122328
-1.136894,-0.095839,-0.056778,-0.372227
-0.054267,0.180942,-0.070331,-0.023643
-0.035833,-0.049451,0.008008,0.004415
0.076394,-0.096963,0.118752,-0.057539
-0.031311,0.293853,0.239550,-0.074084
0.160586,0.099886,-0.154355,-0.042056
0.178332,-0.078311,0.074599,0.149630
0.011075,0.069162,-0.127330,-0.005253
0.295621,-0.127000,0.057989,-0.144214
0.117291,0.165620,0.276639,0.074155
0.090330,-0.078690,0.059130,-0.111425
0.183528,-0.135635,0.064097,-0.097164
0.111517,0.032777,-0.099647,-0.114425
0.103233,0.100826,0.287415,0.024164
0.238882,-0.057449,-0.067972,0.069531
-0.039201,-0.068091,0.049787,-0.046257
0.164246,0.342751,0.183049,-0.106660
0.200449,-0.063142,-0.026839,-0.123513
0.272519,-0.057996,0.044265,0.277434
-0.050040,-0.078535,0.074389,-0.074126
0.073546,0.558201,0.307543,-0.009965
0.814588,0.112131,0.138988,0.255571
-0.208431,0.076227,-0.074070,-0.067448
0.415059,0.175126,0.308771,0.207217
0.254908,-0.010092,0.165057,0.017406
-0.119531,-0.023273,0.018251,-0.149817
0.131658,0.493905,0.353138,0.017931
-0.088583,-0.051313,0.066609,-0.170336
-0.158730,0.025818,0.101463,-0.026902
0.117823,-0.072611,-0.095582,0.154976
-0.064528,0.456394,0.463867,-0.162050
0.275625,-0.053105,0.145692,-0.177117
0.135432,0.495796,0.393276,0.044383
-0.024915,0.045644,0.118409,-0.254236
0.156788,0.192787,-0.008443,0.308466
0.073099,-0.132157,0.019089,0.196824
0.222152,0.120322,-0.171445,-0.011026,-0.248121,0.057311,0.095185,-0.039898,0.132876,-0.079789,-0.215629,-0.015412,0.130239,-0.191876,-0.072804,0.066129
0.265603,-0.501514,-0.073738,-0.305128,-0.809116,-0.239807,0.289412,0.262906,-0.047341,0.259114,-0.206169,-0.141561,0.191234,-0.127455,-0.120855,-0.239474
0.075823,-0.423560,-0.730082,-0.328058,-0.085602,-0.326482,0.102012,0.251985,0.207249,0.030572,0.238968,-0.191814,0.017851,0.052473,0.088709,0.781775
-0.041750,0.023552,0.069041,-0.484139,-0.245144,0.211610,0.121609,-0.136354,-0.077670,0.239814,-0.029054,0.125824,0.129257,-0.185954,-0.030485,-0.068246
-0.117072,-0.025705,-0.061701,-0.036353,0.125288,-0.089039,0.004578,0.044168,-0.007210,0.271995,0.060821,-0.275672,0.015466,-0.188375,0.387042,0.093411
0.005440,-0.182107,-0.088782,0.166863,-0.030901,-0.117146,0.204541,0.377100,0.307753,0.080059,0.038354,0.158307,-0.252451,0.223897,-0.063496,0.138063
0.726357,0.340389,-0.280441,-0.343857,-0.383834,-0.048384,-0.245539,-0.136319,-0.493437,1.140575,-0.368237,-0.705435,0.568986,-0.375143,0.724768,-0.063143
0.177351,0.391782,-0.092774,-0.190075,0.208133,-0.203400,0.134953,0.027038,0.260272,0.155460,-0.001409,0.157226,0.128421,0.067240,0.074788,0.201042
-0.197788,-0.144016,-0.479379,-0.060840,-0.254498,-0.186050,0.121753,-0.100768,-0.151900,-0.209733,0.211295,-0.111782,-0.075690,0.006072,-0.030658,0.221423
0.220443,0.092238,0.127692,0.308262,-0.217954,0.029284,-0.024948,0.153800,0.049499,0.245937,-0.309604,0.035800,0.010297,-0.225688,-0.068852,0.126800
-0.031899,-0.203550,-0.140597,-0.224280,-0.105694,-0.200100,0.011032,0.113270,-0.377914,0.050956,-0.114504,0.086371,-0.152806,0.083173,-0.024159,0.331082
-0.006814,0.011333,0.356473,0.090641,-0.204649,0.092592,-0.079064,0.138040,0.027652,-0.109155,-0.271193,0.247618,0.182483,0.050420,-0.077646,0.010060
0.093074,0.002872,0.011341,0.117147,0.042298,0.021678,0.055133,0.096781,-0.249546,0.076295,-0.069552,-0.264950,0.393808,-0.115396,-0.167982,0.072889
0.014651,0.089800,0.058734,0.227554,0.077546,-0.197587,-0.242155,0.152625,-0.047765,-0.109822,0.093818,-0.022642,0.014832,-0.236163,0.163670,0.130830
0.260154,-0.176262,-0.152025,-0.155535,-0.042312,-0.136657,-0.115522,0.010766,-0.010255,-0.067856,-0.000361,-0.206925,0.282644,-0.003367,-0.052765,0.416537
0.046788,-0.424086,0.164601,-0.086032,-0.369515,0.077946,0.463850,0.065066,-0.051873,0.213289,-0.351378,0.084184,0.012342,-0.043908,-0.003401,0.258551
0.340325,0.124349,-0.149467,0.133515,-0.230074,0.102364,-0.027435,-0.063017,0.193966,-0.105561,-0.138275,0.002262,0.045390,-0.049060,-0.097756,0.179077
-0.004509,-0.325795,-0.183395,-0.558860,-0.158243,-0.182775,0.108515,0.203720,0.060113,0.296514,-0.044924,-0.196762,-0.139812,-0.058106,-0.110087,-0.234199
0.045426,-0.107092,-0.354271,-0.090063,-0.034799,-0.256564,0.051330,0.064895,0.150318,0.131333,0.337733,0.117315,0.091069,-0.044690,0.040779,0.254111
-0.043973,-0.154197,-0.007879,-0.539056,-0.155450,0.266107,0.111017,0.096260,-0.158583,0.172163,0.001806,0.108855,-0.040138,-0.067959,0.049710,-0.068711
0.095895,-0.006174,0.119174,0.076715,0.065313,-0.206797,0.027727,0.033982,-0.102335,0.180271,0.115202,-0.202034,0.152699,-0.082579,0.336481,0.113814
-0.047221,-0.082819,-0.175493,0.215802,-0.444249,-0.155267,0.310586,0.334532,-0.098951,0.220315,-0.090681,-0.224508,-0.070689,-0.157332,-0.179145,0.341384
0.560296,-0.085008,0.103879,0.091002,-0.090252,0.279144,0.202679,0.016684,-0.059613,0.216990,0.053020,-0.257013,0.405955,-0.280465,0.070308,0.050678
0.290208,-0.021581,-0.237854,-0.109514,-0.160039,-0.209544,0.094383,0.013213,0.218428,0.064577,-0.190265,-0.081089,0.043824,-0.071066,-0.092494,0.255094
-0.060860,0.019544,-0.057130,-0.119350,-0.070567,-0.080865,-0.075291,0.027730,-0.053327,-0.048043,-0.021739,-0.041738,-0.059487,-0.159902,-0.085667,0.522750
0.415980,0.381603,0.214494,-0.044910,-0.343070,-0.164805,-0.047853,0.069831,0.096453,0.067123,-0.201585,0.095854,0.232844,-0.302460,0.148239,0.116427
0.001374,-0.148990,0.008466,-0.150318,-0.172866,-0.290876,-0.095482,0.011579,-0.282896,0.068735,-0.137672,0.080535,-0.175173,-0.076766,0.054307,0.470480
0.173277,0.059007,0.078765,0.118718,0.105984,0.013563,-0.292009,0.239599,-0.082516,-0.246798,-0.327988,0.193855,0.221244,-0.234826,-0.151137,0.048095
0.248478,0.066861,0.007541,0.149821,0.008219,-0.000145,-0.122012,-0.082715,-0.211813,0.040263,-0.228431,-0.312400,0.067060,-0.114297,-0.035297,0.212677
-0.043174,0.294374,0.246426,-0.073712,-0.087979,-0.408741,0.090838,0.062803,-0.150642,-0.469530,-0.020403,-0.101705,0.019523,-0.250266,-0.183461,0.226523
0.209081,0.018992,-0.194266,0.069172,-0.044206,-0.234309,-0.158593,0.078833,-0.267848,-0.132899,-0.012296,-0.095348,0.153224,-0.045136,0.064868,0.248379
0.097155,0.159603,0.013380,-0.163422,-0.059058,-0.061472,0.147407,-0.062731,-0.070683,0.168108,-0.103582,-0.106542,0.015529,-0.148294,0.113558,0.160125
0.093123,0.088509,0.145328,0.198043,0.031010,0.158206,-0.081516,-0.119843,-0.012348,0.024686,-0.042027,0.053899,-0.020686,0.002654,0.039334,0.000324
-0.261841,-0.177090,-0.255217,-0.083809,0.049721,0.117710,0.002307,-0.061460,-0.077893,-0.158998,0.054020,0.017001,0.095700,-0.104090,0.076905,0.144508
-0.071343,0.114997,0.195346,0.310600,0.024697,-0.142433,-0.062176,0.206389,-0.112823,0.127090,0.000071,0.137473,0.031634,0.228428,0.043161,-0.308659
-0.006395,-0.215103,-0.109627,0.049711,0.033427,0.065312,-0.043350,-0.201059,0.033805,-0.114971,0.065209,-0.082752,-0.186180,-0.110938,0.051399,-0.093870
0.115747,-0.108880,-0.116852,-0.018711,-0.072320,0.091642,-0.214112,0.025384,0.057477,-0.040910,-0.078342,-0.158468,-0.036991,-0.009037,0.050396,-0.103421
-0.104998,-0.045104,0.125743,-0.206334,-0.030317,0.109029,0.151131,0.053281,0.023154,-0.006323,0.183026,-0.118673,-0.176062,0.003514,-0.027893,-0.208917
-0.044586,-0.113284,-0.086502,-0.191604,0.034790,-0.091338,-0.039146,0.129074,-0.153910,-0.096055,0.111687,-0.069783,0.092971,-0.005666,-0.126016,-0.220234
-0.259256,-0.019277,-0.250316,0.098182,0.379778,0.004297,-0.067023,0.055232,-0.025538,-0.041472,0.225245,-0.049625,-0.139537,-0.036587,0.097593,-0.163525
0.059988,-0.093136,-0.210402,-0.024073,0.002375,0.053169,-0.091013,-0.126653,0.174175,0.077141,-0.003654,0.101610,-0.067779,-0.029586,-0.078273,0.141420
0.335323,-0.057405,0.003338,0.038779,-0.081274,-0.188074,0.169327,0.120716,0.040906,0.087137,0.116798,0.068141,0.152983,-0.063463,0.056430,0.133039
0.147819,0.161207,0.184990,-0.007065,0.135639,0.006652,-0.087680,0.133646,0.154619,0.083168,-0.011229,-0.046992,0.070664,-0.047350,0.137632,0.161305
0.137950,0.127494,-0.035893,-0.197325,0.061252,0.092140,0.115207,0.031811,0.120161,0.036346,-0.067876,-0.053519,-0.103501,-0.155141,-0.157423,0.005150
-0.016245,0.014607,-0.039039,-0.252351,-0.067595,-0.019084,0.138600,0.100685,-0.049492,0.222387,0.010271,0.174349,0.140471,0.141126,-0.021052,0.154498
0.077384,0.102166,0.277650,0.082402,-0.012397,0.106358,-0.097456,-0.043120,-0.092126,-0.239552,0.175608,0.099066,-0.096373,0.081069,-0.040780,0.055123
0.083443,0.082663,0.122232,0.111006,-0.080069,-0.076600,0.084158,0.248399,-0.151391,-0.197012,0.047841,-0.282767,0.044339,0.031426,0.076209,-0.209984
0.027336,0.075559,-0.107910,-0.160636,0.011856,0.015459,0.136068,-0.105622,0.116343,0.142252,-0.167840,-0.044464,-0.030858,0.187050,0.008411,-0.252091
0.132032,0.076229,-0.137622,-0.227328,-0.429798,-0.171756,0.035905,0.148558,-0.044756,-0.300635,-0.116207,0.041870,-0.023917,0.006698,0.001367,0.198365
-0.026962,-0.233180,-0.391159,0.097160,-0.120194,-0.309957,-0.084588,-0.087958,0.019047,-0.149371,-0.145972,0.170518,0.195335,-0.038270,-0.114275,-0.187278
-0.091177,-0.440142,-0.615056,-0.218806,0.144037,-0.110838,0.154323,-0.084925,0.044830,-0.008630,0.360901,0.042870,-0.110170,-0.340129,-0.117361,0.292996
0.084243,-0.097364,-0.027707,-0.017834,0.001501,0.093496,0.292152,0.105346,-0.215926,0.203291,-0.114936,0.150678,-0.082399,0.054478,-0.238892,0.083585
-0.050365,0.116120,0.133441,0.070153,0.013911,0.028673,-0.012042,-0.086828,-0.060209,0.133284,-0.057025,-0.116354,0.118625,-0.018010,0.107683,0.229344
-0.285725,-0.098067,-0.237547,-0.035233,-0.041675,-0.094078,0.200924,0.123313,-0.301747,0.089599,-0.106097,0.144871,-0.297131,-0.324077,0.057574,0.258485
0.315069,0.047463,-0.262962,0.197712,-0.302516,0.157942,-0.151730,0.155168,0.112409,0.318159,0.130641,-0.238024,-0.081657,-0.021675,0.090440,0.456645
0.061843,-0.060745,-0.186712,0.153823,-0.172100,-0.190646,-0.072761,-0.042373,-0.035857,-0.087444,-0.184074,-0.007435,0.341866,-0.096394,-0.041270,0.124743
-0.126298,-0.008349,-0.329688,0.162306,0.142215,-0.312150,-0.054262,-0.110675,-0.014835,-0.290523,0.064208,0.146622,-0.042813,0.028086,-0.169960,0.430063
0.217634,0.156090,0.047285,-0.155064,-0.025778,0.032886,-0.056639,-0.008988,0.084302,0.195282,-0.006627,0.041369,-0.139547,0.132859,0.138575,0.042492
-0.025205,-0.066997,-0.042048,-0.049784,-0.306192,-0.113453,0.052798,-0.078589,-0.150104,0.029656,-0.191415,-0.165551,0.138898,-0.115100,-0.074349,0.106727
0.129078,0.023965,0.133892,0.025590,-0.045311,-0.108096,-0.170565,0.148171,0.052402,-0.218266,-0.122874,0.013741,0.292255,-0.305557,-0.186204,-0.145957
0.221452,-0.035581,-0.050351,0.165773,0.040184,-0.139831,0.054287,0.035936,0.134849,0.027718,0.151038,-0.263151,-0.044368,0.026955,-0.069377,0.207017
0.253237,-0.072862,0.180988,0.652958,0.056078,-0.182895,-0.209075,-0.116554,-0.110112,0.074071,-0.148174,-0.084134,0.077406,-0.154355,-0.222452,-0.001435
0.061220,-0.165494,-0.252496,-0.126889,-0.176748,0.021918,0.073303,0.084107,-0.288304,0.121563,-0.157035,-0.129854,0.265812,0.100473,0.192103,0.487345
0.175452,-0.162799,0.137007,0.134928,-0.202789,0.048839,0.058839,-0.155712,0.028644,0.219770,-0.246916,0.009937,0.091659,-0.334947,0.135207,0.195293
