-0.048208,0.214811,0.011849,0.274608,0.227556,-0.063896,0.180442,0.030413,0.199684,-0.085435,-0.107060,0.368864,0.021908,0.305937,-0.247831,0.018078
0.122239,0.172612,-0.259937,-0.174326,-0.173719,0.245911,0.016058,0.129009,0.008998,0.072223,0.126055,0.162977,-0.205297,0.173132,-0.133924,-0.095189
-0.090442,-0.125747,-0.152975,-0.215452,0.059737,0.232284,0.159840,0.146571,-0.239983,0.006365,-0.172771,-0.235385,0.289647,0.071906,-0.059161,0.172734
0.012269,-0.225363,-0.225496,-0.145587,0.070852,-0.156215,0.210028,-0.031340,-0.243864,-0.220180,-0.283790,0.073669,0.066040,-0.175978,0.052450,0.221120
-0.021089,0.065472,-0.156434,0.009788,-0.091239,-0.191211,0.074681,0.177095,0.132827,-0.150681,0.247627,0.122443,0.032250,0.104757,-0.150737,-0.218706
0.172525,-0.102440,-0.177991,0.179854,0.333847,0.283622,-0.194737,0.067037,0.105633,0.178267,-0.008495,0.130453,0.150425,0.160389,0.000592,-0.115272
0.028330,0.066255,-0.001144,0.080671,0.068828,0.203915,0.241514,0.306289,0.072082,-0.101076,0.175874,-0.034814,0.087527,-0.365059,-0.121661,0.001207
0.278155,0.165895,-0.099058,0.109827,-0.186441,0.044336,-0.035010,-0.013894,-0.187394,-0.208926,0.163591,0.172206,-0.107356,0.032357,-0.282990,0.083788
-0.159374,-0.076024,-0.169362,0.238143,0.217508,-0.071403,0.192322,-0.103662,-0.037479,0.035687,-0.131919,0.032720,0.107009,0.300237,0.062425,-0.079987
-0.199914,-0.148288,-0.214736,-0.053435,-0.201075,-0.108110,-0.135917,-0.157633,-0.042769,-0.166093,-0.127618,-0.097364,-0.223228,-0.017036,0.096301,0.094088
-0.194913,0.020149,-0.162787,-0.232096,-0.144838,0.211902,0.172738,-0.212929,-0.131009,-0.300510,-0.138426,-0.014385,0.196945,0.174922,0.053460,-0.476139
0.010009,0.007422,-0.089102,-0.142930,-0.050014,-0.149117,-0.086155,-0.329699,0.257134,-0.069587,-0.274125,-0.096168,-0.280748,0.170463,0.132374,-0.396112
-0.208121,0.044633,0.105905,0.204365,-0.228412,-0.185624,-0.124701,0.056882,-0.186903,0.074656,0.035301,0.094476,0.147647,-0.016572,0.104114,0.013280
0.269121,-0.057419,0.035225,-0.097782,-0.001219,0.040209,0.039301,-0.088807,0.179712,0.122507,-0.079512,0.020608,-0.245917,0.207333,-0.202766,-0.170367
-0.224101,-0.034306,-0.217215,0.021603,-0.013393,0.004951,0.243076,0.102932,-0.202884,-0.192306,0.137037,-0.235263,-0.142202,0.151303,-0.086090,-0.221582
0.068722,0.224840,0.172583,0.062366,0.200499,0.077331,-0.015866,-0.233420,-0.180601,-0.162717,-0.213191,-0.025578,0.074793,-0.145812,0.232478,0.146779
0.098773,0.216337,0.195859,0.140188,0.266955,0.025444,-0.048666,0.102946,-0.232305,-0.110029,0.115771,0.316258,-0.089213,-0.139598,0.006250,0.124742
-0.005710,0.102022,0.082269,-0.148134,0.228124,0.143427,0.175624,-0.179048,-0.003543,0.003503,-0.064383,-0.079529,0.149206,-0.100606,-0.125615,-0.171787
-0.148812,-0.136962,-0.079819,0.154861,0.004789,0.293403,0.189599,0.230693,-0.192949,0.028205,-0.122273,0.149910,-0.128077,0.136337,0.153689,0.226939
-0.013784,-0.001288,0.023216,0.077885,0.045157,0.341505,-0.025900,0.105690,-0.108234,-0.163816,0.029083,-0.042139,0.028101,-0.268036,-0.064469,0.157174
-0.030854,-0.229987,0.032346,0.184991,-0.137933,0.204521,0.054995,-0.098791,0.159428,0.281357,0.130279,-0.141348,0.292809,-0.067619,0.077963,0.017837
0.025419,0.102602,-0.474000,0.251531,0.136677,0.188483,0.108932,-0.150737,0.171124,-0.341379,0.242667,-0.280300,-0.235607,-0.241410,-0.165069,-0.035289
0.008425,0.162322,0.009314,-0.238535,0.123790,-0.257617,-0.235483,-0.021657,0.181547,0.048383,0.155690,-0.052060,0.260215,-0.111499,-0.078229,0.157924
0.078691,0.121641,-0.121520,0.198324,0.162022,-0.174894,0.022040,0.018940,0.154438,-0.137697,-0.034969,-0.107996,-0.221520,-0.167224,0.181575,-0.012403
-0.034150,-0.053274,-0.147981,0.045077,0.030039,0.195908,-0.078793,-0.162484,-0.219560,0.246050,0.241799,-0.062894,-0.041677,-0.027665,-0.062256,0.142972
0.227061,0.148682,-0.235287,0.057041,0.240304,0.057547,0.007006,0.215719,0.229117,-0.267288,-0.043897,0.223667,-0.196379,0.197119,-0.043170,0.080587
0.019324,0.020711,0.125555,-0.250940,-0.087004,0.202708,-0.218162,-0.130875,0.029162,0.082668,0.231199,-0.287637,0.137603,-0.096712,0.195073,-0.192717
-0.111472,0.153638,-0.018067,-0.045957,-0.099582,0.115231,0.114144,0.177087,0.082760,-0.081654,0.010913,-0.242909,0.250396,-0.137742,0.240203,0.160589
-0.066800,0.039611,-0.120664,-0.069895,-0.043637,0.208071,-0.089642,0.149714,0.144043,0.127988,-0.068897,0.142919,-0.220235,0.223532,0.180948,-0.086439
0.207839,0.406783,-0.203932,-0.041472,-0.285935,0.006054,-0.017053,-0.088610,0.225676,-0.069002,0.002040,-0.243115,-0.065971,0.293834,-0.197632,0.132607
0.140138,-0.047992,-0.068746,-0.058081,0.019637,0.077236,0.010087,-0.212653,0.085670,-0.223245,-0.040111,0.233570,0.162891,-0.185107,0.121475,0.249298
0.100848,0.125453,0.174932,-0.150887,-0.110457,0.038777,0.109426,0.148017,-0.139265,0.206436,0.033349,-0.150399,-0.056947,0.275531,0.063298,0.321641
-0.091207,-0.210853,0.007235,-0.089309,0.140944,-0.315261,-0.336009,-0.080202,-0.036373,-0.155490,0.150866,0.110750,-0.145669,0.180886,0.055061,0.048024
0.116117,0.216455,-0.027352,0.184607,-0.286147,-0.181098,-0.219888,-0.240866,-0.201396,0.276079,0.206242,-0.206906,-0.215212,-0.230264,-0.131075,-0.041659
0.014520,-0.050733,-0.222823,0.032215,-0.129034,0.093879,0.062480,0.113082,-0.120608,-0.241194,0.180319,0.030292,0.208405,-0.095990,-0.041656,0.146067
-0.233184,0.006602,-0.197184,-0.010321,-0.124960,0.191272,0.151866,-0.182522,-0.173701,-0.111214,0.136684,0.058903,0.129092,-0.015559,0.080997,-0.088572
0.165253,0.191784,-0.188909,-0.095256,-0.064375,-0.288682,-0.291063,-0.025661,0.346813,-0.311657,-0.001800,-0.033359,0.246351,0.097794,-0.132051,-0.180993
0.113739,0.127366,-0.007803,-0.193070,0.120447,0.174623,0.210502,0.195130,-0.172459,0.037146,0.069414,-0.014983,-0.033596,0.080115,0.180853,-0.131784
-0.244680,0.176237,0.208579,0.045933,0.157080,0.170927,-0.109604,0.087260,-0.125491,0.064479,-0.000859,-0.091043,0.092459,-0.133292,0.069676,-0.009389
0.217370,0.113553,0.244388,-0.049537,0.159068,-0.065101,-0.093437,-0.219317,0.084594,0.173388,0.007879,0.171184,0.118330,0.218643,0.197046,0.030119
-0.087576,0.208091,-0.124008,0.129811,-0.207728,0.069162,-0.171355,0.198269,-0.097890,0.007146,0.189532,0.120717,0.012669,-0.223592,-0.068542,-0.035659
-0.308280,0.011295,0.056266,0.211837,0.000002,0.131397,0.099146,-0.051369,-0.071632,0.259243,-0.184675,-0.200059,0.191613,-0.360870,-0.200631,-0.080794
-0.090644,0.095125,0.002590,-0.207387,-0.144410,0.120107,0.201960,0.085456,0.123551,-0.099519,-0.113692,0.115357,0.085918,-0.046096,0.105500,-0.064148
-0.114260,-0.091584,0.122277,-0.016447,-0.239594,-0.138894,-0.044568,0.231255,0.032925,-0.201250,-0.028584,-0.126196,0.195136,0.208387,-0.198062,-0.241332
-0.226597,-0.099211,-0.041932,0.200205,0.056653,0.063814,-0.024134,0.245369,-0.204963,0.236779,0.063880,-0.245640,-0.109001,0.011540,0.106044,-0.220761
-0.177161,0.099915,0.156532,-0.171758,-0.091648,0.000792,-0.240413,0.207358,0.188387,-0.081924,0.189643,-0.228295,-0.216558,0.208414,0.146062,0.160676
-0.189461,-0.191097,0.214822,0.005698,-0.104455,0.127682,0.133242,0.211937,0.230750,-0.014392,0.168730,0.016171,0.093442,-0.226499,0.114569,0.036912
0.042884,-0.095169,0.087899,0.161497,0.051327,-0.126951,-0.211138,-0.151337,-0.005560,0.114950,-0.047370,-0.072542,-0.204521,0.207966,-0.209082,0.210923
0.010921,0.206088,-0.013771,-0.157979,0.090108,-0.136057,-0.093857,0.115568,0.026182,-0.155699,0.192543,0.105596,0.102260,-0.191386,0.238209,-0.221025
0.010661,0.257208,-0.216459,-0.100669,0.058176,0.075490,0.215024,0.202395,0.166073,0.109762,-0.033325,-0.279047,0.007909,0.351071,-0.245993,0.092753
-0.059943,-0.361045,0.171929,0.058705,-0.001389,-0.028856,-0.120159,0.188002,-0.226164,-0.194154,0.125992,-0.211287,0.088704,0.004039,-0.089595,-0.140180
-0.045097,0.137294,-0.040531,-0.063181,-0.083479,0.062550,0.045725,-0.151761,-0.236970,0.333063,0.057945,0.111641,0.068767,0.127467,-0.129773,-0.129482
-0.185498,0.011521,-0.260268,0.248884,-0.071172,0.055327,-0.028924,-0.035765,0.042891,-0.115730,0.126256,-0.034951,-0.229942,0.210246,0.157415,-0.115072
0.181822,0.308234,-0.346255,0.130862,-0.004842,0.230627,0.261633,-0.101184,-0.214813,0.007470,-0.195173,-0.036679,-0.214526,-0.282006,-0.195966,-0.155989
-0.056735,-0.042123,-0.155806,-0.145557,0.075136,0.031024,0.173833,0.023367,0.224201,0.233887,0.202271,0.306889,-0.117202,0.018697,-0.151614,0.150834
-0.169389,-0.087601,-0.045777,-0.074843,0.087924,-0.023239,-0.287368,-0.182596,0.208343,0.117844,0.017101,0.273277,0.108373,-0.160051,-0.059743,0.160509
0.215900,0.064150,-0.313963,0.201575,0.299516,0.221218,0.032323,-0.004953,0.129794,0.158418,-0.094306,0.175386,-0.234428,0.292886,-0.183181,-0.140857
0.055364,-0.169887,-0.208710,0.254218,-0.068954,-0.259945,0.027898,0.204217,0.128913,0.002293,-0.214784,-0.088109,-0.233482,0.011018,0.110005,0.063432
0.077228,0.019536,0.017780,-0.173363,0.249989,0.005596,0.078333,-0.049543,-0.035016,-0.030642,0.205367,-0.206980,-0.159182,0.142018,-0.208703,-0.211361
0.107161,0.016696,-0.310661,0.167421,-0.031790,0.127999,-0.037513,0.162334,-0.055908,0.095617,-0.138245,0.069592,0.061372,-0.093284,-0.265579,0.149380
0.151526,-0.211176,0.016800,0.042074,-0.107846,-0.152996,-0.232373,0.023500,-0.175029,-0.044993,-0.259559,-0.144021,-0.122352,0.012859,0.172157,0.038234
-0.012143,-0.087532,-0.253612,0.037096,-0.149774,0.018359,0.143983,-0.096703,0.132492,0.089118,-0.155905,-0.254943,-0.008549,-0.356028,0.003602,0.141762
-0.028050,-0.227080,-0.084104,0.202105,0.027505,-0.186216,-0.095528,-0.086011,-0.206820,0.188727,0.061418,-0.324945,-0.117025,0.150889,0.224787,0.118804
0.252084,0.019786,-0.138460,0.064939,-0.143301,0.048960,-0.320052,-0.058233,-0.043503,-0.053548,-0.021859,0.179688,-0.237641,0.180168,0.105257,-0.043759
0.101496,0.133807,0.174243,-0.158026,-0.049143,0.334287,-0.152587,-0.078057,-0.054825,-0.282613,0.129227,0.316865,-0.361004,0.089336,-0.055183,0.144681
0.180243,-0.167046,-0.069432,0.305360,-0.050232,0.170440,0.041401,-0.182526,0.059178,-0.148806,0.125538,-0.192906,-0.236635,-0.129012,0.044844,-0.091978
0.123644,-0.048168,0.197573,-0.135235,0.010845,0.194737,-0.235205,0.166165,0.119056,-0.255501,-0.157167,-0.117925,0.069035,-0.116890,0.073662,-0.142597
-0.058798,-0.088030,-0.253658,-0.180758,-0.318163,-0.181971,-0.050763,0.086156,-0.101097,-0.002720,0.010804,0.068711,-0.195213,-0.316078,0.176547,0.200887
0.044271,-0.380981,-0.213207,0.140078,0.145867,0.277974,-0.081416,-0.106921,-0.177900,0.139859,-0.205752,0.294028,-0.060520,-0.284030,-0.335938,-0.231657
-0.267783,0.008463,-0.039404,0.041083,-0.202304,0.103859,-0.138000,0.015079,0.075614,-0.137288,-0.101469,0.054841,-0.067458,0.200571,-0.096110,-0.076130
0.247348,-0.055735,0.187016,-0.196296,0.180459,-0.106571,0.032210,-0.155868,-0.080124,-0.026084,-0.126565,0.054013,-0.139334,-0.107317,0.136640,0.306197
-0.162673,0.164790,-0.034893,-0.272081,-0.186666,0.134431,-0.217484,-0.299584,-0.156667,-0.165435,0.075686,-0.092163,-0.139922,-0.245969,0.091144,0.222283
-0.203148,-0.137626,0.077841,0.068332,-0.192810,0.047819,-0.084423,0.056814,0.137701,0.148828,-0.071134,-0.099304,0.037364,-0.095364,0.077861,0.040114
0.089243,0.222194,-0.052855,0.235231,-0.256517,0.272728,0.157687,0.105099,-0.106138,-0.066187,-0.124287,-0.068026,-0.009951,-0.193349,-0.294502,-0.225061
0.068294,-0.182694,0.025427,0.026574,-0.185400,0.082467,0.183799,0.163163,-0.047991,-0.071693,0.107632,0.005361,-0.180681,-0.170157,-0.089891,-0.018890
0.011520,-0.187830,-0.041549,0.169873,0.190516,-0.104024,0.272332,0.223775,0.036609,-0.251356,0.110082,0.166551,-0.292857,0.016752,-0.325922,-0.076327
-0.313187,-0.214633,0.042896,0.028782,-0.334186,0.185055,-0.192603,0.098099,-0.288964,0.050943,-0.137316,-0.050242,-0.046050,0.028920,-0.095112,-0.249860
0.225749,-0.220711,-0.051563,-0.023847,-0.086717,-0.046819,0.101267,-0.222371,-0.031908,0.089811,0.061950,0.192987,-0.123895,-0.250571,-0.276396,-0.118285
0.073926,0.175536,-0.268683,0.002966,-0.265774,0.316325,0.235008,0.018255,0.139187,-0.058915,0.178141,0.272998,0.051951,0.169428,0.054434,0.026826
-0.061713,-0.290426,0.059593,0.218282,0.069339,-0.103417,0.141142,-0.178487,-0.058778,0.157268,0.205093,0.262514,-0.341794,0.132353,0.005133,-0.045731
-0.193462,-0.199274,-0.173103,0.046183,-0.114675,0.301592,0.031264,0.014755,0.016261,-0.305104,-0.232311,-0.061266,-0.198617,-0.093058,0.030173,-0.047916
-0.034195,-0.001016,0.076294,0.155207,0.126903,0.045312,0.043470,-0.183109,-0.023694,-0.056335,0.091668,0.114853,-0.118359,0.054975,0.207366,-0.229751
-0.212338,0.093237,0.184691,-0.143853,-0.272745,0.039005,-0.062980,0.187609,-0.300062,-0.196289,0.013865,-0.158404,-0.225524,0.165377,0.149882,-0.202842
-0.260280,0.317519,-0.011653,0.008744,0.111503,-0.005048,0.231352,-0.224714,0.176300,-0.208755,-0.147967,0.008194,0.024158,-0.298719,-0.033830,-0.039885
-0.178537,-0.421970,0.205375,-0.085066,-0.167796,0.053767,0.319274,0.133175,-0.063958,-0.144488,-0.342862,0.314688,-0.366241,-0.308492,-0.252533,-0.125619
-0.033693,-0.109422,-0.108140,0.235721,-0.200860,-0.082544,-0.067889,0.175775,-0.268893,-0.259060,0.055023,0.160389,-0.251013,-0.028601,0.102388,0.093151
0.213026,-0.188657,-0.279540,-0.114811,0.047607,-0.045411,0.072875,-0.019748,-0.264822,0.094530,0.051277,-0.162659,0.037654,0.036628,-0.112304,-0.029001
-0.086966,0.030921,-0.245025,0.054611,-0.143173,-0.297994,0.169168,-0.228915,0.003957,-0.043613,0.287794,-0.004832,0.145813,-0.122889,0.069357,-0.193666
-0.188625,-0.203371,-0.235543,0.079591,0.017957,0.304939,-0.012807,0.218004,-0.203529,-0.123334,0.192780,-0.146165,-0.093310,0.143064,-0.026699,0.182771
-0.038774,-0.201301,0.062792,0.061652,-0.296122,0.127112,-0.083174,0.069729,0.092103,-0.059558,0.123946,-0.115133,-0.208737,-0.136649,-0.147634,0.059451
-0.211192,-0.044007,0.039927,-0.031978,0.232167,0.190145,-0.111862,-0.002184,0.000104,-0.186773,0.087928,-0.169365,-0.181823,0.043174,0.097329,0.090661
-0.000815,-0.085569,-0.222524,0.068415,0.033064,-0.054863,-0.079646,0.212613,-0.155706,-0.112078,-0.023867,-0.044966,-0.176683,0.001698,-0.290974,0.191921
0.038836,0.186953,-0.189750,-0.173936,-0.320093,-0.102364,-0.060563,0.068630,-0.311643,-0.143386,0.114723,0.227961,0.029377,0.157084,0.105260,0.049595
0.055127,0.235821,-0.208673,-0.093326,0.149038,-0.142084,0.281132,0.149486,0.010364,-0.129733,-0.052789,-0.076087,0.131555,-0.225640,-0.059303,0.041169
0.149153,0.091654,0.074185,-0.218414,-0.326381,0.292261,-0.176081,0.172046,-0.121801,-0.124978,-0.060160,0.262004,-0.201591,-0.167736,-0.149100,0.170439
0.138766,0.183446,-0.306106,-0.024682,-0.204720,-0.074577,0.030547,0.044931,-0.367114,0.050452,-0.138506,0.133605,-0.299850,0.004593,-0.081309,-0.281140
0.018866,-0.134575,-0.103545,-0.158314,0.254796,-0.140814,0.046695,0.226066,-0.131517,0.279547,-0.100962,0.171120,0.037714,-0.236088,-0.094156,0.299723
0.119805,-0.144631,-0.030109,0.010153,-0.015111,-0.179876,0.220131,-0.211987,-0.109950,0.279209,0.244482,-0.052334,-0.028799,-0.033795,0.126555,-0.142434
-0.035044,-0.169765,-0.063487,0.128833,-0.022696,0.081922,-0.017369,0.104640,0.176336,0.151902,-0.025523,-0.172064,0.158614,-0.159702,0.057184,-0.111201
-0.026048,-0.180679,0.085636,0.228989,0.314658,-0.024765,-0.004258,0.014502,-0.063393,0.093385,0.012414,0.004953,0.178476,0.246470,-0.016224,0.035309
0.314725,0.261169,-0.000801,0.302161,0.320356,-0.132557,0.104438,-0.141433,0.212922,-0.129802,-0.012841,-0.007388,0.130166,0.088748,0.041518,-0.036155
0.195630,-0.108931,0.100251,-0.173460,-0.197092,0.158569,0.119589,0.111599,0.044353,-0.178360,-0.142604,-0.076775,-0.201692,-0.077107,0.100014,0.148579
0.003093,-0.081342,0.017043,0.104004,-0.035439,-0.110012,-0.125254,-0.069814,-0.041321,-0.093725,0.018666,0.229582,0.187650,-0.191468,-0.098128,-0.069502
-0.090711,-0.215472,-0.206245,0.064976,-0.169317,-0.013166,-0.010458,0.131912,0.214534,0.157940,-0.105837,-0.003840,-0.058127,0.122615,0.100460,0.220234
0.234211,-0.157801,-0.129989,0.006997,0.118332,-0.195126,-0.037365,-0.154723,-0.129371,0.046299,-0.100779,-0.158203,-0.006892,-0.018706,-0.033038,0.270103
-0.176700,-0.098389,0.208725,0.176877,0.052647,-0.047219,0.182302,-0.064851,-0.150187,-0.120909,-0.001194,0.121779,0.080405,0.050194,0.232120,0.121516
0.060559,-0.114059,0.178319,0.156027,0.126399,-0.092461,-0.015452,-0.091379,-0.171993,0.030147,0.210774,-0.044061,0.301263,0.018134,-0.137356,-0.101877
-0.122474,-0.148776,0.109291,0.154787,0.006866,0.204852,0.089585,-0.102128,-0.058056,-0.225953,-0.139257,0.049540,-0.048701,-0.050869,-0.266172,-0.155477
0.092861,0.029373,0.135997,-0.017708,0.034638,0.118148,0.001143,0.166987,0.243098,0.043976,0.244795,-0.004707,0.139502,-0.138097,-0.134111,-0.208282
-0.057526,0.008087,0.229847,-0.114094,-0.154561,-0.054042,-0.152549,0.224207,0.084673,0.051113,0.190373,-0.131449,0.032584,-0.005575,0.287940,-0.236537
0.188636,-0.049078,0.206655,0.159742,-0.119451,0.176256,-0.081834,0.038954,0.251554,0.091232,0.011611,0.027577,0.232030,0.151069,0.165555,-0.156592
0.164262,0.222593,0.138583,0.165656,-0.143574,-0.028527,0.208010,0.119545,0.063119,0.148520,-0.016774,0.130603,0.147231,-0.218046,-0.160664,-0.033718
-0.044909,0.164585,-0.147195,-0.175879,-0.061897,-0.001050,0.236906,-0.043891,0.041562,-0.273476,0.025663,0.203442,-0.033115,0.051192,-0.148665,-0.324034
0.101161,-0.254976,0.094502,0.216069,-0.081259,0.165796,0.193265,-0.218213,-0.078649,0.219362,0.096278,-0.093889,-0.196701,-0.224887,-0.072150,0.120748
-0.028252,0.207911,-0.087372,0.153295,0.178394,0.095087,0.160280,-0.073938,-0.235205,-0.170050,0.015385,0.198127,-0.165973,0.072408,0.079974,-0.130777
-0.168007,0.232956,0.092574,0.195393,0.062782,0.192037,0.059312,-0.282420,-0.090786,0.053753,-0.146160,0.058600,-0.040982,-0.306058,0.028383,-0.173570
-0.105308,-0.271800,0.162357,-0.124788,-0.176983,0.300602,0.071826,0.172626,-0.305710,-0.165008,-0.324460,-0.083870,-0.029125,-0.090841,0.003272,0.083869
-0.039666,0.009181,-0.018803,-0.077603,-0.225739,0.276463,0.189092,-0.120144,-0.016470,-0.051308,-0.134054,-0.133702,-0.142455,0.184930,-0.056043,-0.032435
0.232638,0.006946,-0.099313,-0.102216,-0.016527,0.101683,0.062453,0.076578,0.209308,0.138958,-0.216277,-0.164613,-0.144670,-0.256625,-0.035513,0.336052
0.177826,0.042117,0.029326,-0.163492,0.066997,0.111003,0.082709,0.045054,0.161445,0.169283,0.024725,-0.055185,0.145619,-0.191853,-0.181665,-0.091199
-0.093917,0.067540,-0.196145,-0.090203,-0.092030,0.224981,-0.036834,-0.057455,-0.227438,-0.136329,0.029086,0.011826,0.006702,-0.243229,-0.108587,-0.063158
0.004441,-0.098421,-0.066776,-0.012538,0.060319,0.319966,-0.164558,0.037344,-0.085839,-0.103536,0.220001,-0.158832,-0.080431,0.157129,0.088742,-0.230580
0.224294,0.126794,0.001252,-0.205482,0.220857,-0.089733,0.082957,0.058252,0.168979,0.123778,-0.222581,-0.147765,0.202199,-0.265482,0.073007,0.182226
0.047347,-0.074001,-0.174141,-0.050423,0.201724,0.110132,-0.060949,-0.009696,-0.192696,-0.134267,-0.038728,-0.058820,-0.136424,0.037660,0.155118,0.085743
-0.197202,-0.184299,-0.001845,-0.026151,-0.345013,-0.052510,-0.047116,0.209703,-0.145267,0.062397,0.031188,0.132278,0.026104,-0.264410,0.072742,-0.177106
0.077389,0.045657,0.035051,-0.241106,0.032911,-0.121621,-0.097734,-0.172223,0.031973,-0.031403,-0.193157,0.252600,-0.007071,-0.238468,0.088505,0.059523
-0.101946,-0.214668,0.170170,-0.236296,-0.057592,-0.130201,-0.109857,0.025789,-0.100406,-0.295408,-0.049127,-0.183425,-0.285519,0.116479,0.039259,0.029811
-0.160938,0.114402,-0.111414,0.081362,-0.037316,0.005434,-0.130514,-0.145787,-0.335107,0.054359,0.067609,-0.098573,-0.026366,0.224936,0.073884,-0.326616
0.376530,-0.080327,0.375695,-0.187816,0.019703,-0.063446,0.393494,-0.011018,0.122108,0.296590,0.060513,0.373740,0.085314,0.080412,-0.084699,0.148142,-0.051630,-0.389021,-0.135679,-0.128056,-0.038073,-0.091245,-0.201011,0.103898,0.023885,-0.105878,0.056891,-0.056402,0.047387,0.181229,0.216072,0.125910,0.293930,-0.218060,0.428471,0.099915,-0.448104,-0.367162,-0.107352,0.029188,0.038853,-0.207719,0.031368,0.169260,0.104900,0.173885,-0.304524,0.026581,0.345711,-0.026538,-0.206109,-0.645160,-0.033498,0.316170,0.241136,-0.118808,0.073889,-0.185725,-0.217171,-0.089876,-0.212183,-0.019809,-0.061263,-0.412220
0.242448,0.135847,0.079876,0.390270,0.137043,-0.069064,0.067465,-0.044182,0.029879,0.014551,0.450090,0.081228,0.033339,0.022935,-0.125068,-0.269348,0.132707,0.233752,0.376382,-0.125182,0.485447,0.393194,0.152576,-0.074601,0.566260,0.054875,0.560507,-0.080167,-0.102974,0.104647,0.270610,0.277525,-0.361581,0.089680,-0.073403,0.211900,0.021435,0.269101,0.157406,0.056533,0.024085,0.107448,-0.045994,0.158568,-0.145756,-0.139428,-0.121246,-0.059766,-0.019301,0.267149,0.267027,-0.179992,0.031757,0.028583,0.113797,-0.278534,-0.045144,0.240157,0.242419,0.297568,0.045545,0.195604,0.171185,0.453643
-0.195470,-0.235849,-0.135759,-0.114683,0.005327,0.120974,0.047460,-0.024411,-0.142100,-0.179017,-0.034825,0.137124,-0.087022,0.037768,-0.176844,-0.202931
-0.165632,-0.080699
-0.053238,0.166615,-0.151249,-0.006097
0.241010,-0.040567,-0.013184,0.055138
0.180696,-0.105947,0.090029,0.004072
-0.255496,-0.212029,0.233796,0.039511
0.196826,-0.057349,0.062506,0.077353
0.102210,0.059713,0.072496,-0.121492
-0.024318,-0.025688,-0.037080,-0.045120
-0.150925,-0.081414,0.199353,0.065087
-0.030247,-0.149306,0.274869,0.048635
0.177989,0.028724,-0.149192,-0.062931
0.294057,-0.008261,-0.154577,0.268195
-0.243800,0.137988,-0.154089,0.202988
-0.279160,0.024150,-0.314250,0.055401
-0.014084,0.014759,0.038084,0.003978
-0.104727,-0.160426,0.025954,-0.188740
0.095613,-0.240059,-0.241829,-0.057394
-0.015053,-0.144895,0.179060,-0.181639
0.211534,-0.006206,0.011975,0.129267
-0.114492,0.068114,-0.001707,-0.137290
0.145468,0.119741,-0.210404,-0.005461
0.059674,-0.012488,-0.071772,0.067926
0.065611,0.013776,-0.175671,0.267569
-0.243940,0.100948,0.072925,-0.299800
-0.009483,-0.003744,0.073301,0.130363
-0.212725,0.075628,0.190707,-0.039179
-0.221419,0.127443,0.030760,-0.053479
-0.125411,0.069480,-0.105639,0.058615
0.253174,-0.209333,0.092624,0.182776
-0.108540,-0.095450,-0.233657,-0.201413
-0.000804,-0.059744,0.146829,-0.254334
0.143114,-0.176501,0.078032,0.238675
-0.249362,-0.062777,0.155570,-0.023252
-0.267999,0.034659,-0.024294,-0.102590
0.167337,0.080037,-0.194342,0.072590
-0.006333,-0.103050,0.198462,0.141298
-0.160973,-0.172217,0.009989,0.216358
0.144067,-0.097113,0.043475,0.279888
0.006626,0.042479,0.222532,0.033824
0.242690,0.149824,0.097724,0.095485
0.087409,0.194891,0.017714,-0.008423
-0.108769,-0.213234,-0.041265,-0.094526
0.133641,0.117016,-0.172482,-0.073002
-0.139674,0.237243,0.069992,0.081585
-0.018652,-0.200919,-0.004263,0.169792
0.028641,0.141775,0.242520,0.137879
-0.240155,-0.139696,-0.010931,0.013687
0.246327,0.220362,0.166642,-0.117084
-0.152562,0.197069,-0.190406,-0.086766
-0.100159,-0.242834,-0.206995,-0.002810
0.076214,-0.141266,0.221606,-0.051582
0.176281,-0.000914,-0.021314,-0.057626
-0.272966,-0.019744,-0.109519,0.155880
-0.097379,-0.179960,0.093711,-0.187261
-0.019248,0.042806,-0.020232,-0.087346
-0.327988,-0.045338,0.173106,0.119952
-0.009787,-0.005571,0.128223,-0.114393
-0.126644,0.037693,0.020287,0.108214
0.216433,-0.126802,-0.055076,0.141189
-0.153893,0.192114,-0.194379,-0.101762
-0.137329,-0.103306,0.173039,-0.141246
-0.341885,0.051099,-0.199667,0.032295
-0.151753,-0.056483,0.119215,-0.237012
0.106858,-0.091234,0.093221,-0.051284
-0.142771,-0.107939,0.179517,0.025040
-0.149860,-0.296618,0.195855,0.099761,-0.271390,0.055847,0.346230,-0.064788,-0.238741,-0.153230,0.316671,-0.205048,0.049709,0.088363,-0.031431,0.003219
0.048373,0.277559,-0.074836,0.077832,0.169991,-0.026635,0.395271,-0.091106,-0.160233,-0.092448,0.159036,0.029243,0.173888,0.205580,0.152568,-0.295075
-0.177647,0.025356,0.016040,0.191893,-0.183094,-0.199867,0.218875,0.141982,-0.193353,0.064608,-0.129025,0.033220,0.165811,0.075798,-0.172765,-0.256838
0.393199,0.053283,-0.144211,0.179796,0.084642,0.161299,0.172804,0.193457,0.019753,0.294742,-0.128202,0.153432,-0.021679,0.419129,0.205842,-0.208206
0.010523,-0.117982,-0.014935,-0.038531,-0.223097,0.332030,0.229824,0.423209,-0.130171,0.203344,-0.133175,-0.003337,-0.217797,-0.078744,0.138895,0.041603
-0.268791,0.026627,-0.153202,0.016347,-0.241979,0.029573,0.020530,-0.152830,0.121178,0.239520,0.175612,0.112523,-0.186474,0.084543,-0.098814,0.047386
-0.076533,-0.229497,0.030615,-0.172386,-0.267506,-0.090504,-0.123094,-0.142219,-0.061980,0.175177,0.153993,-0.123667,0.097183,0.129608,0.185175,-0.321405
0.230563,0.251239,-0.115894,0.068474,-0.218086,0.168242,-0.096998,-0.081284,0.075389,-0.035679,0.271460,-0.087814,0.097060,-0.011575,0.138466,-0.403126
0.105438,-0.150963,-0.027692,0.315169,-0.183339,0.111539,0.199023,0.246357,-0.141384,0.303747,-0.127304,0.241303,-0.189909,0.218889,-0.272456,-0.282798
-0.037728,-0.278240,-0.059928,0.142417,0.025945,0.229358,-0.139358,0.220236,0.163836,0.037200,0.007707,-0.020029,-0.291061,-0.072800,0.124742,0.143509
-0.087495,-0.191487,0.147830,-0.237114,-0.090190,-0.084835,0.269079,-0.060551,0.103561,0.073257,-0.095037,-0.247925,0.124407,0.022517,0.174113,0.241037
0.017637,-0.055868,-0.111526,0.184313,-0.055990,-0.165076,0.196029,-0.154953,0.000558,0.202402,-0.173122,-0.326466,-0.205289,-0.112131,-0.011157,0.152978
-0.147691,-0.182254,0.013728,0.254001,-0.143902,0.261457,0.120774,0.114614,-0.050006,-0.034586,0.245918,0.136054,0.124510,0.170392,-0.301750,0.176205
0.156112,-0.068438,-0.041581,0.124698,-0.010080,0.182848,-0.200394,0.026134,0.151787,-0.126864,-0.003829,0.143343,-0.079011,0.173288,-0.160369,-0.223049
-0.175170,-0.180412,0.072451,-0.141484,0.174594,0.100786,0.195359,0.125012,-0.228983,-0.039236,0.290741,-0.098259,0.206005,-0.043640,0.119810,-0.061250
-0.141797,0.047381,0.129781,0.107052,-0.105271,0.023227,-0.207533,0.072606,0.045160,0.214543,-0.054604,0.262458,-0.264658,-0.003229,0.112726,-0.045713
-0.198790,0.093876,-0.254808,-0.118133,-0.284322,0.190283,0.357892,0.123149,-0.063747,-0.132966,0.031530,-0.121100,0.105933,-0.024833,-0.264988,0.221225
0.035594,-0.049712,-0.143035,0.308928,0.120561,0.096583,0.267535,-0.028783,-0.077336,0.190472,0.104447,0.215808,-0.024504,-0.076832,0.027118,-0.146606
0.058851,0.192742,-0.140891,-0.084203,-0.188889,-0.177898,0.132346,-0.183310,-0.038633,0.014724,0.174158,-0.137688,-0.258288,0.269898,-0.144966,0.205150
0.150796,-0.079503,0.026899,-0.169526,0.196585,-0.074213,0.033677,-0.005653,-0.087096,-0.004719,0.050625,-0.006083,0.139688,0.304783,0.142126,-0.260839
-0.156261,-0.221119,0.076561,0.246869,-0.052131,0.139553,-0.017973,0.173382,-0.012540,-0.160838,0.182417,-0.086359,-0.016664,-0.452210,-0.171292,-0.264366
-0.182624,-0.187627,0.090416,0.013156,-0.150855,-0.138918,0.092926,0.209846,0.219147,0.100074,-0.144180,0.008774,-0.195073,-0.197309,0.042448,-0.222218
0.248900,-0.136870,-0.155038,-0.074425,-0.334372,-0.193513,0.028671,-0.179456,-0.154335,0.038398,-0.094083,0.162226,-0.236938,0.104306,-0.295766,0.093942
-0.083236,0.145294,-0.045765,-0.162822,-0.393729,-0.269624,0.093272,-0.046921,0.012171,-0.026222,0.262449,-0.204605,-0.199145,0.370866,-0.162094,-0.223942
-0.214516,0.193423,0.024559,-0.024327,0.206356,0.128097,0.193170,0.044073,-0.114612,-0.050973,0.215984,-0.038587,-0.166776,0.087302,0.035139,-0.170564
-0.067012,0.086846,-0.200723,-0.073519,0.091953,-0.236754,-0.107485,-0.196739,0.003578,0.284124,0.135170,0.164587,0.156502,-0.184376,-0.205180,0.028428
0.101647,0.133881,0.191844,0.079763,0.164474,-0.029063,0.275018,0.272759,0.150521,0.124390,-0.135691,0.074709,0.252921,-0.362339,-0.186185,0.008270
0.058050,0.189883,0.058785,-0.061115,-0.194318,0.184763,0.262884,0.226609,-0.258684,0.199876,0.198119,-0.046630,0.210699,0.157396,-0.077413,0.042407
0.114958,0.036407,0.146540,0.294707,0.031534,0.282805,-0.180414,-0.016102,0.060179,0.256702,-0.016843,0.010630,0.041691,-0.094270,-0.247714,0.148029
-0.072554,0.076335,0.066322,-0.086477,-0.350221,0.225816,0.093914,0.272281,0.130596,0.167679,-0.126845,-0.129001,0.107773,0.169484,-0.120809,0.110376
0.188957,0.227308,0.014968,0.207422,0.059539,0.283203,0.260974,0.005096,-0.232719,0.002845,-0.051346,0.084827,-0.076429,0.058629,-0.264188,0.209595
-0.244263,-0.088792,-0.249922,0.307836,0.038359,-0.124386,-0.027757,-0.230029,0.112851,0.214973,-0.128761,-0.053350,-0.047065,0.020813,-0.039637,-0.187467
-0.108762,-0.212900,0.121995,0.112110,-0.167054,0.142650,-0.335822,0.227992,0.216453,0.198713,-0.167210,0.057712,-0.061997,-0.054787,0.186380,-0.170033
0.217880,0.286717,-0.079994,0.078066,0.100349,-0.179185,0.004658,-0.000457,0.019458,0.174036,-0.272075,-0.218218,0.169525,0.135158,0.051099,0.085103
0.087786,-0.137678,0.079321,0.029208,-0.062439,-0.118557,-0.002056,-0.176670,-0.186964,-0.041846,0.202341,0.154088,0.165484,-0.139416,0.184416,0.125439
0.193413,-0.132409,0.152025,-0.059389,0.043482,0.031740,-0.115028,-0.193345,0.070593,0.182014,0.034401,0.248487,0.229040,-0.171303,-0.211794,0.126210
-0.176565,-0.218355,-0.085737,-0.149688,0.029821,-0.150554,-0.232100,0.135151,-0.122620,-0.162543,-0.273773,-0.022378,-0.030264,-0.139998,-0.055932,0.077168
-0.233541,-0.150293,-0.098450,-0.176659,0.005705,0.275724,0.324434,0.036617,0.089737,0.155749,0.260779,0.023909,-0.089731,-0.178690,-0.062946,0.221254
0.019754,-0.073605,-0.210796,0.044900,-0.061286,0.289644,0.116223,0.007740,0.126465,0.012423,-0.266772,0.025397,0.218328,0.071944,0.178427,-0.015833
-0.151110,-0.187827,0.066788,-0.105934,0.078801,-0.016925,0.198059,-0.071141,-0.213357,-0.055330,0.163110,0.214358,0.062618,-0.236254,-0.051560,-0.203993
0.269786,-0.103607,0.105486,-0.216357,-0.024421,-0.246060,0.086851,0.079615,0.208955,-0.003701,0.052201,0.287100,-0.116489,-0.037496,0.039423,0.106236
-0.041020,0.124297,0.265705,-0.239115,0.250771,-0.257513,-0.003103,-0.045804,0.071029,-0.043234,0.180388,0.113461,0.182022,0.135499,-0.189809,-0.268267
0.080331,-0.018933,0.093993,0.222568,-0.163867,-0.201928,-0.106184,-0.136063,0.220320,-0.221736,-0.207407,0.100859,-0.200851,0.191340,-0.062278,-0.116901
-0.203551,0.031451,0.178033,0.184484,0.094598,0.041177,0.254141,-0.203398,-0.235647,0.085432,0.143794,-0.166376,0.093675,0.067401,-0.208520,0.192628
0.253525,-0.185234,-0.039342,0.036562,0.168054,-0.133163,-0.255984,0.100961,0.073204,0.156426,-0.195709,0.221908,0.263045,0.234113,0.167465,-0.122264
-0.111417,-0.026662,-0.016007,0.224663,-0.032973,0.077837,-0.204504,-0.161989,-0.069410,0.158637,0.146377,0.094090,-0.160091,-0.172457,0.179864,0.082918
0.118490,-0.223728,0.160502,0.018661,0.052944,-0.187913,-0.045905,-0.072289,0.018456,-0.126845,-0.011725,0.114444,0.053896,-0.171967,-0.071763,0.107370
0.003704,-0.111852,0.171690,-0.163200,0.025620,-0.044963,-0.288127,-0.042198,-0.217991,-0.170069,0.003081,0.120715,-0.004339,0.181775,-0.195887,-0.237161
-0.098364,-0.196762,-0.056695,0.117615,-0.041423,-0.114038,0.166590,-0.167151,0.039115,-0.160356,0.136999,-0.073501,-0.265117,-0.332288,-0.259684,0.008571
0.082246,0.230286,-0.066753,0.274078,0.081162,0.255270,-0.078350,0.088324,-0.020216,-0.066598,-0.111503,-0.113777,0.118471,-0.114184,-0.107647,-0.057086
0.122673,-0.190947,-0.098396,0.262080,0.119240,0.161498,-0.177090,0.152039,-0.167503,-0.174414,0.148926,-0.095818,0.088969,-0.056764,-0.203962,-0.038061
-0.038184,-0.044402,-0.180019,0.279432,-0.172201,-0.130246,-0.118879,-0.251713,0.182236,-0.005931,-0.101740,0.280887,-0.048829,0.406029,0.039350,0.244066
-0.124748,-0.246769,-0.031991,0.216876,-0.172500,0.115509,0.225689,0.298678,0.096231,0.163626,0.237490,-0.103959,-0.273147,-0.101724,-0.094814,0.188028
-0.150968,0.190898,-0.296316,-0.041208,0.030401,0.037390,0.117065,0.108225,-0.058421,0.125110,0.111271,0.097754,-0.074527,0.175202,-0.154334,-0.067405
0.113950,0.083493,-0.151021,-0.213106,-0.213864,0.128679,-0.250478,0.198369,-0.171453,-0.001173,-0.181318,-0.180460,0.043584,-0.080236,-0.125279,-0.305423
-0.005013,0.125537,-0.274542,0.081436,-0.289026,-0.120719,-0.135407,-0.173735,0.114161,0.157768,0.018451,-0.014868,-0.141386,-0.023531,-0.248324,-0.416714
-0.026213,-0.039326,-0.206103,0.003637,0.206103,-0.018699,0.245611,0.083393,-0.260178,-0.018914,0.140696,0.039799,-0.188618,-0.106049,0.099113,-0.042594
0.172116,0.004778,0.178859,-0.087472,-0.164461,-0.059565,0.057676,-0.183844,-0.005872,0.089485,-0.222917,-0.194853,-0.309680,-0.084861,-0.124477,0.011705
0.182889,-0.037311,-0.087457,-0.196815,0.136780,-0.084996,0.128100,-0.048336,-0.152929,0.137161,0.065749,-0.127077,-0.108799,-0.393363,0.099528,-0.178913
0.191649,-0.104834,0.042875,-0.187313,0.075869,0.270055,-0.260729,0.194656,-0.083065,-0.096514,-0.161004,-0.290694,0.217475,0.220655,-0.209162,0.126297
-0.092778,0.139613,0.114419,0.323127,0.010480,0.298379,0.278740,-0.081879,0.016968,0.211180,0.018729,-0.014369,-0.182127,-0.227486,-0.210769,-0.023563
0.305206,-0.295942,-0.310603,0.111182,0.005279,0.081508,-0.132734,0.210502,0.095236,0.003420,0.111386,0.127450,-0.013250,-0.066020,0.035309,0.089271
0.161012,-0.062075,0.094660,-0.162074,0.021061,0.047001,-0.154682,0.093984,0.158799,0.266621,0.185350,-0.241434,-0.194500,-0.030251,0.141963,0.229386
-0.197773,-0.331520,-0.256823,-0.145250,0.128518,0.090809,-0.079075,-0.249205,0.108147,-0.132391,0.177499,0.032647,0.188971,0.127238,-0.119197,0.100763
